fc1.weight:
-0.0038608876056969166,-0.01498330943286419,0.02043181285262108,0.03663657605648041,0.059998881071805954,-0.02404707483947277,0.012275942601263523,0.018706688657402992,-0.03133014962077141,-0.00531247491016984,-0.0067411186173558235,-0.0023584922309964895,-0.012756546959280968,-0.025366101413965225,0.05254681408405304,0.04552176967263222,-0.01709761843085289,0.06198762357234955,0.01609642617404461,0.04590762406587601,-0.01421807985752821,0.045783042907714844,0.06060156226158142,0.1329062432050705,0.017103098332881927,-0.02331608347594738,0.05246800184249878,0.04090455546975136,-0.04800200089812279,0.05667521432042122,0.05140401050448418,-0.049230530858039856,0.13549326360225677,-0.0019810828380286694,-0.03200608864426613,0.06461400538682938,-0.016579024493694305,0.13155771791934967,0.13219356536865234,-0.033003076910972595,0.023005152121186256,-0.04889962822198868,-0.03603879734873772,-0.014023622497916222,0.04120289534330368,0.059500593692064285,-0.007854686118662357,0.05631028488278389,0.031433820724487305,-0.13579384982585907,-0.14349651336669922,-0.09411460161209106,0.11625545471906662,0.07819560170173645,-0.07788989692926407,-0.04586269333958626,-0.06652609258890152,0.062104567885398865,-0.06031365692615509,-0.025476966053247452,0.02738363854587078,-0.13013096153736115,0.03164359927177429,-0.06620442122220993,0.04092205688357353,-0.02705872803926468,0.09610635042190552,0.07905306667089462,0.07789052277803421,-0.040356576442718506,-0.03182496130466461,-0.016840720549225807,0.04631180688738823,-0.03350627422332764,-0.04833781346678734,0.02817494235932827,-0.13325275480747223,-0.00695006875321269,-0.05001314356923103,0.10144384205341339,0.11978539824485779,0.0932445377111435,0.0341634564101696,0.054394517093896866,-0.16270799934864044,-0.1315276026725769,0.005365780554711819,0.060667797923088074,-0.027593201026320457,0.035262927412986755,-0.04186731576919556,-0.23849840462207794,-0.018515855073928833,0.022941837087273598,-0.00010059736086986959,0.08918789029121399,0.05973876640200615,-0.0267467200756073,0.04862027242779732,-0.19198846817016602,-0.10229479521512985,-0.054360680282115936,-0.06626427173614502,0.016158699989318848,0.024671770632267,-0.018657756969332695,-0.14378215372562408,-0.047584809362888336,-0.011127842590212822,0.05003836005926132,0.12895669043064117,0.001506089000031352,0.012494837865233421,0.110394187271595,0.043949831277132034,-0.06937611848115921,-0.09917405247688293,0.062352389097213745,-0.043596841394901276,0.04615938290953636,0.017774924635887146,0.03340337052941322,-0.12198806554079056,-0.02211308665573597,0.10164157301187515,0.13101594150066376,0.19963033497333527,0.16403056681156158,0.15237809717655182,0.18070776760578156,0.07341630011796951,0.00206664577126503,0.038602378219366074,0.006831400096416473,-0.013015692122280598,0.013570595532655716,0.06493246555328369,-0.0176839679479599,0.04420165345072746,-0.08327106386423111,-0.08081986755132675,-0.03414809703826904,0.09659160673618317,0.15119749307632446,0.14110752940177917,0.010285092517733574,0.0009283122490160167,-0.06047885864973068,-0.04876674339175224,-0.04333745688199997,0.031725894659757614,0.07983505725860596,0.0554581880569458,0.03485402464866638,-0.09571134299039841,-0.1096474677324295,-0.17151233553886414,-0.061717595905065536,0.12069804966449738,0.22570563852787018,0.09774535894393921,-0.05210866034030914,0.025791415944695473,0.004037141799926758,-0.05130796879529953,0.030525829643011093,0.11001226305961609,-0.04428042098879814,0.04255637526512146,-0.11398310959339142,-0.01462203823029995,-0.10060053318738937,-0.10732337832450867,0.10337716341018677,0.07876501232385635,0.09507902711629868,0.030500199645757675,-0.043792854994535446,-0.057994432747364044,-0.06597644835710526,-0.03445158898830414,-0.0034841911401599646,-0.08846632391214371,0.001051808358170092,-0.12047726660966873,-0.06365814805030823,-0.03364938125014305,-0.09838931262493134,0.034134309738874435,0.09827441722154617,0.13024114072322845,0.02852027118206024,-0.021123269572854042,-0.05786401033401489,0.003862754674628377,-0.04661709815263748,-0.06770782172679901,0.01571735553443432,-0.05802255496382713,-0.1661374568939209,-0.15330208837985992,-0.19223159551620483,-0.1791153997182846,0.05891608074307442,-0.0021688779816031456,0.004088179673999548,-0.05415327101945877,0.002510078949853778,-0.017803050577640533,-0.015228510834276676,-0.05106361210346222,0.00826561450958252,0.05738113075494766,-0.06419093906879425,-0.014351344667375088,0.010850334540009499,0.04515997692942619,-0.00810801237821579,-0.0131802624091506,-0.04273077845573425,0.014464919455349445,0.019849706441164017,-0.013886826112866402,-0.003570445580407977,-0.04300272837281227,-0.04091627523303032,-0.07244639843702316,-0.019386490806937218,-0.03788837790489197,0.010654251091182232,-0.03365592285990715,-0.010033035650849342,0.05549996346235275,0.009105213917791843,0.04644002392888069,-0.04339763522148132,-0.0362350158393383,0.05942988768219948,-0.025109952315688133,0.04939131811261177,0.015634624287486076,0.07732447981834412,0.08690507709980011,0.055411916226148605,0.012955733574926853,-0.07113818824291229,0.09562508761882782,0.10934929549694061,0.052562132477760315,0.13620546460151672,-0.00847669504582882,0.15323063731193542,0.12336952239274979,0.056640516966581345,0.017861884087324142,-0.04769761115312576,0.1573791801929474,0.12679120898246765,0.004715363960713148,-0.04417791962623596,-0.0717923492193222,0.004968039691448212,0.03061811439692974,0.07439476251602173,0.10151802003383636,-0.06185123324394226,0.10179988294839859,0.1494387984275818,0.014037379063665867,-0.0009557247394695878,-0.044710416346788406,0.10655011981725693,0.09923366457223892,0.010675076395273209,-0.007539189420640469,0.0023033444304019213,-0.09557303041219711,0.064071424305439,0.023778941482305527,-0.0141087481752038,0.04323659464716911,0.03477288782596588,0.14599254727363586,0.009089160710573196,0.009840560145676136,0.0015313387848436832,0.12594205141067505,0.09475218504667282,0.07203901559114456,-0.05122831091284752,-0.014505568891763687,0.03372480720281601,0.023863721638917923,0.061812009662389755,-0.030859876424074173,-0.033562276512384415,0.07160884886980057,0.06322353333234787,-0.04430849850177765,0.028451522812247276,0.05658259615302086,0.07821284234523773,0.08371429890394211,0.018854718655347824,-0.07885710895061493,-0.06209157407283783,-0.056743744760751724,0.0628030002117157,0.12379753589630127,-0.051834043115377426,-0.015611717477440834,0.04687673598527908,0.10108087211847305,-0.018298063427209854,-0.009813818149268627,0.04798146337270737,0.12848761677742004,0.08979598432779312,0.059069763869047165,-0.11426886916160583,-0.02500002458691597,0.060667984187603,0.0559622086584568,0.037431035190820694,0.026902658864855766,0.046896789222955704,0.023133564740419388,0.021170927211642265,0.060571569949388504,-0.049874015152454376,0.05889742821455002,0.07245441526174545,0.03270319104194641,0.015251178294420242,-0.12430572509765625,0.02960197627544403,0.016048841178417206,-0.11077114939689636,-0.05985589325428009,-0.016347039490938187,0.012158949859440327,0.05117197334766388,0.006303445901721716,-0.03421597555279732,-0.05726168304681778,-0.03945431113243103,-0.005934842396527529,0.027170756831765175,0.03468566760420799,-0.08250027149915695,0.00040571592398919165,-0.06826319545507431,-0.03749449551105499,-0.028073694556951523,-0.011601372621953487,0.06900215148925781,-0.02953268773853779,0.04476907476782799,0.018835028633475304,0.058029305189847946,-0.02978607267141342,0.018694231286644936,-0.13281776010990143,-0.020732183009386063,0.14110198616981506,0.11806901544332504,0.07701282948255539,-0.020789407193660736,0.04707511514425278,0.020112663507461548,-0.026863479986786842,-0.026149187237024307,-0.02680269256234169,-0.009863631799817085,-0.028545690700411797,-0.04823853448033333,0.05152978375554085,-0.1358526349067688,-0.14150755107402802,0.03564811125397682,0.0024118544533848763,0.10196142643690109,0.07633453607559204,-0.012966706417500973,0.0705924928188324,0.03958979621529579,-0.13660140335559845,-0.04406046122312546,-0.0239320769906044,-0.04816267639398575,0.05580722913146019,0.022437425330281258,-0.17593450844287872,-0.11460556089878082,-0.10303981602191925,-0.058857738971710205,0.009825261309742928,0.02215118333697319,0.051279015839099884,-0.029746171087026596,-0.034921467304229736,-0.08164437860250473,-0.001308274338953197,0.0064180693589150906,0.013440212234854698,-0.0030621292535215616,-0.039925385266542435,0.005661560222506523,-0.028836971148848534,0.02286927029490471,-0.014873221516609192,0.08465094119310379,0.058257490396499634,0.05370868369936943,0.0924643948674202,-0.03867260366678238,-0.01838061213493347,-0.06822455674409866,0.06299273669719696,0.015867266803979874,0.050032563507556915,-0.023313350975513458,0.025813719257712364,0.04935241863131523,0.12597382068634033,0.1730499118566513,0.1566229611635208,0.1612502634525299,-0.04604332521557808,0.022304099053144455,-0.012444362044334412,-0.053352780640125275,-0.029070554301142693,-0.06142468750476837,0.06106826663017273,-0.002013349672779441,0.002130754990503192,0.05475086718797684,-0.05112224072217941,-0.04608713090419769,-0.0015216668834909797,-0.008715066127479076,-0.03640257567167282,-0.05754232779145241,-0.0542069710791111,0.0250514205545187,-0.02501235157251358,-0.04666229337453842,-0.059349555522203445,-0.05686056986451149,0.06926798075437546,-0.05069586634635925,-0.05005289241671562,0.04337312653660774,-0.05450892075896263,0.0059240818955004215,-0.006057572551071644,-0.029759734869003296,-0.026045283302664757,0.018041230738162994,0.01029764860868454,0.014672319404780865,0.0174965001642704,-0.05414649844169617,-0.019399207085371017,-0.024358123540878296,-0.05111270770430565,0.016685334965586662,0.004584090784192085,0.018572399392724037,-0.03958741948008537,-0.027964912354946136,0.021862510591745377,-0.0775328129529953,-0.01710658147931099,0.06613550335168839,0.025990551337599754,-0.01567251794040203,0.009062465280294418,0.05853334441781044,-0.06307151168584824,0.03463355824351311,-0.10119776427745819,-0.11052354425191879,-0.09744592010974884,-0.17126189172267914,-0.09670455008745193,-0.0007844711653888226,-0.0976950079202652,0.03155452385544777,0.03866078332066536,-0.0217044148594141,0.05223686993122101,-0.042479876428842545,0.04994948208332062,0.051929786801338196,0.040086448192596436,-0.12588617205619812,-0.11619993299245834,-0.12129553407430649,-0.12052265554666519,-0.03699634224176407,-0.18639437854290009,-0.19495485723018646,-0.09911584854125977,-0.06550396978855133,-0.021831000223755836,-0.07217274606227875,-0.024639759212732315,-0.005751101300120354,0.0073265875689685345,0.1913422793149948,-0.005507739260792732,-0.18827134370803833,-0.21116286516189575,-0.07931695878505707,-0.020482923835515976,-0.09944785386323929,-0.206678569316864,-0.019744299352169037,0.051655448973178864,-0.1119471937417984,-0.06046054884791374,-0.040072936564683914,0.04603855684399605,0.061376504600048065,0.14097726345062256,0.024066820740699768,-0.07437799125909805,-0.18388690054416656,0.0710691586136818,0.09063449501991272,0.007822860963642597,-0.19497434794902802,0.027163362130522728,0.014234676957130432,-0.08951309323310852,-0.01992865651845932,0.05292225256562233,-0.05658278614282608,0.03227494657039642,-0.05996651574969292,0.022133538499474525,0.02686389721930027,0.041108109056949615,0.1428423821926117,0.1387559473514557,0.0858360007405281,-0.08270952105522156,0.04635625332593918,-0.005557310301810503,0.001166691305115819,-0.031066760420799255,-0.035880859941244125,-0.06307174265384674,0.005575633142143488,-0.06831811368465424,0.049175702035427094,0.02214357815682888,-0.025624988600611687,-0.046990036964416504,0.07560695707798004,0.06880046427249908,-0.044820476323366165,0.03482450917363167,0.01852576993405819,0.0011549607152119279,-0.0054176971316337585,0.0215697530657053,0.004904747474938631,0.06275369971990585,0.12163051962852478,-0.017643947154283524,0.024945033714175224,0.06205056235194206,0.07577478885650635,-0.027728257700800896,-0.021367065608501434,-0.059139057993888855,0.05022134259343147,-0.026881087571382523,-0.11682268977165222,0.06599865853786469,-0.02126763015985489,-0.0064872270449995995,-0.06123162433505058,0.014037324115633965,0.014256184920668602,0.07372415065765381,-0.01956837810575962,0.028008870780467987,0.10877276211977005,0.028773536905646324,-0.09387829154729843,-0.045464687049388885,-0.05047241970896721,-0.055413756519556046,0.029426774010062218,-0.02925158478319645,-0.02141362987458706,0.023617833852767944,0.01745716482400894,-0.01792108453810215,-0.02170075662434101,-0.002264393260702491,-0.0406351163983345,0.07427366822957993,0.059315379709005356,-0.06946182996034622,0.007000621408224106,-0.00246609328314662,0.004967811517417431,-0.05748927965760231,0.06389713287353516,-0.05602170154452324,0.06278274208307266,0.04624557122588158,-0.12800763547420502,-0.008885767310857773,0.06981342285871506,-0.0035662436857819557,0.063070148229599,-0.04406297579407692,-0.06062190234661102,-0.010512450709939003,0.007201563101261854,-0.0690741091966629,-0.00857444666326046,-0.05669265240430832,0.06102755293250084,0.009671943262219429,0.056121744215488434,-0.021800799295306206,0.009879980236291885,-0.024170752614736557,0.08091028779745102,0.08938417583703995,-0.04153062403202057,-0.07613068073987961,-0.04599347710609436,-0.05003733187913895,-0.009588898159563541,0.05344507470726967,-0.04314465820789337,0.03489887714385986,0.02477424219250679,0.04756022244691849,0.05215470865368843,0.01050707045942545,-0.0078054191544651985,0.017081240192055702,0.026164794340729713,-0.043580062687397,0.007768798153847456,-0.008082207292318344,-0.011789139360189438,0.04630547761917114,0.06649942696094513,0.007947842590510845,-0.047099798917770386,0.02762286737561226,0.008887529373168945,-0.006103221792727709,0.055090732872486115,-0.030669428408145905,-0.05701658874750137,-0.057520750910043716,0.042813740670681,0.0734262466430664,-0.035640209913253784,0.027357429265975952,0.040658652782440186,0.0507955327630043,0.013946518301963806,-0.00629587983712554,-0.016788940876722336,-0.01929466426372528,0.02246066927909851,0.01057810802012682,0.03187263011932373,-0.03322885185480118,0.016063405200839043,-0.01601540297269821,-0.003441771026700735,-0.045330774039030075,0.030267970636487007,-0.0004419962933752686,-0.028240976855158806,-0.020183032378554344,0.06350100040435791,-0.05229394882917404,-0.024087468162178993,-0.1146005392074585,0.005342697259038687,0.105021633207798,0.08831130713224411,0.11422464996576309,0.10237955302000046,-0.14809650182724,-0.2620980143547058,0.02428431622684002,0.04792773723602295,0.1230926662683487,0.04889315366744995,0.027017857879400253,-0.02206999622285366,-0.03609718754887581,-0.023970937356352806,0.12093213200569153,0.16678079962730408,0.07749515771865845,0.13585710525512695,0.14251850545406342,-0.09702084213495255,-0.12073597311973572,-0.03777278587222099,0.11112488061189651,0.08430341631174088,-0.008386937901377678,0.05310121551156044,-0.016705242916941643,0.054323460906744,0.08096036314964294,-0.09666689485311508,-0.021938662976026535,0.15080095827579498,0.16341367363929749,0.10751862823963165,0.008153378963470459,0.11362472176551819,-0.014048976823687553,-0.014995342120528221,0.04872125759720802,0.002359668491408229,-0.05477168783545494,0.04693318530917168,-0.03584223613142967,0.07590475678443909,-0.052691392600536346,0.024654662236571312,0.17309452593326569,0.0594995841383934,-0.14369653165340424,0.009280170314013958,0.04035939276218414,0.05483097955584526,-0.017260568216443062,0.037863362580537796,-0.03597482293844223,-0.05815457925200462,-0.03938354179263115,-0.03236349672079086,0.10452877730131149,0.1598890870809555,0.14381961524486542,0.10228082537651062,-0.07695495337247849,-0.14600837230682373,0.022229071706533432,-0.12048641592264175,0.06376761943101883,0.024061571806669235,0.044650062918663025,0.024988533928990364,0.06446518003940582,0.021411539986729622,-0.12620921432971954,0.050946932286024094,0.004376433789730072,0.07757995277643204,0.06888382881879807,0.021268321201205254,0.03427528962492943,-0.041971605271101,-0.09517670422792435,-0.011140113696455956,-0.03403157740831375,-0.05678781121969223,0.02608601376414299,0.0007449389086104929,0.04125227406620979,-0.18689176440238953,0.04891457408666611,-0.06133681908249855,-0.028449255973100662,0.005270184949040413,0.0930810496211052,0.2412102073431015,0.15247909724712372,-0.0997563898563385,-0.04777287319302559,0.029790062457323074,-0.04449814558029175,0.038516268134117126,-0.02413647249341011,0.060886822640895844,-0.04378487542271614,0.17325565218925476,0.08917825669050217,0.04178649187088013,-0.012269449420273304,-0.024829061701893806,0.26891371607780457,0.1244828924536705,-0.13840657472610474,0.04605058208107948,0.0012261314550414681,-0.034328948706388474,0.0381220281124115,-0.011114859953522682,-0.04639013856649399,-0.025266526266932487,0.08563444763422012,0.09604321420192719,-0.006884932052344084,-0.11557545512914658,-0.15074758231639862,0.11732956767082214,0.14156463742256165,-0.14179497957229614,-0.03765704855322838,-0.043237488716840744,0.00433344068005681,-0.06569940596818924,0.057395126670598984,-0.012984737753868103,0.0668761283159256,0.14234311878681183,0.021902864798903465,-0.023233594372868538,0.03757985681295395,-0.13583001494407654,0.07484138011932373,-0.044968996196985245,-0.04646890610456467,-0.0242493636906147,-0.09559157490730286,0.06109362095594406,-0.06416719406843185,0.06555069983005524,0.044706959277391434,-0.0023839659988880157,0.035550929605960846,-0.10327890515327454,-0.03369986638426781,0.031196216121315956,-0.10609448701143265,-0.09999119490385056,0.07073979079723358,0.0967339500784874,0.09469147771596909,-0.03381546959280968,0.029265938326716423,0.006404408253729343,-0.05913282558321953,0.04973636567592621,-0.06700962036848068,0.1776740700006485,-0.000821461493615061,-0.1676245778799057,-0.12081965804100037,-0.10429651290178299,-0.0734175443649292,0.0582084096968174,-0.02103920467197895,0.05761440843343735,-0.08379962295293808,0.052160926163196564,-0.016553092747926712,0.06181764975190163,0.05591527000069618,-0.011239730753004551,-0.031065084040164948,0.004060948267579079,-0.06504124402999878,0.019740428775548935,-0.021188464015722275,-0.06236092001199722,0.060814328491687775,-0.036504581570625305,0.027953753247857094,0.06476376205682755,0.047970693558454514,0.056278206408023834,0.06517904251813889,0.057456694543361664,-0.05051757022738457,0.021432647481560707,0.0689445212483406,0.05807046219706535,-0.015277942642569542,-0.037743061780929565,0.03206188231706619,0.09540679305791855,0.05545242130756378,-0.039275314658880234,0.03823773190379143,-0.05502582713961601,-0.052002307027578354,0.03391464799642563,-0.07401584088802338,-0.0016810755478218198,-0.06021745502948761,0.04733686521649361,-0.020849738270044327,0.030721301212906837,-0.010715938173234463,-0.040212586522102356,-0.04924318939447403,0.045402053743600845,0.035333484411239624,0.014572081156075,-0.05488100275397301,0.005121692083775997,0.042429689317941666,-0.065109483897686,0.015100793913006783,-0.06091112643480301,0.009542528539896011,0.030586251989006996,-0.07302216440439224,-0.034183770418167114,0.030441241338849068,0.035918112844228745,0.026089295744895935,0.01471277978271246,-0.011962509714066982,-0.010262911207973957,-0.05422183871269226,-0.052293241024017334,0.04182519391179085,0.0425354465842247,9.082072938326746e-05,0.012920551933348179,0.005790635012090206,0.004534238018095493,0.02695859782397747,-0.020774759352207184,0.04272060841321945,-0.06334619969129562,-0.025186222046613693,-0.024304620921611786,-0.01836608350276947,0.06295495480298996,0.029561735689640045,0.04646690934896469,-4.167904990026727e-06,-0.06311656534671783,-0.010327478870749474,0.04199788719415665,0.0253925584256649,-0.04333562031388283,-0.033673860132694244,0.03378288075327873,0.009540154598653316,-0.03525998070836067,-0.045772913843393326,-0.03433684632182121,-0.014157001860439777,0.049154531210660934,-0.011521046049892902,-0.0031642518006265163,0.062012944370508194,0.004555269610136747,-0.008136383257806301,-0.0566188208758831,0.0392582081258297,-0.04368780925869942,-0.039810121059417725,0.0039556208066642284,-0.016575664281845093,-0.010942825116217136,0.006604012101888657,0.0031349025666713715,-0.055446524173021317,-0.008936389349400997,0.0020711820106953382,-0.055124588310718536,0.025433510541915894,-0.0386834517121315,-0.07943473011255264,0.007457147818058729,-0.06242501363158226,0.0295329038053751,-0.040189605206251144,0.0538276731967926,0.05805719271302223,-0.04222581535577774,0.040485408157110214,-0.0490245521068573,0.010693344287574291,0.005704013630747795,-0.044987116008996964,-0.03959167003631592,-0.023437118157744408,0.016049334779381752,-0.07326862961053848,-0.0449092797935009,-0.04827919229865074,-0.05678313598036766,0.03418585658073425,0.04648221656680107,0.045757122337818146,0.039274901151657104,0.056887779384851456,0.053611066192388535,-0.026619069278240204,0.04370250180363655,-0.05018423870205879,0.03647880628705025,-0.0015589800896123052,0.015622732229530811,-0.044428806751966476,-0.016924342140555382,0.02557910978794098,-0.017530051991343498,0.054715827107429504,-0.011091304011642933,-0.020368283614516258,0.03320181369781494,-0.04541053995490074,-0.031315263360738754,0.025293700397014618,-0.006883110385388136,-0.023518729954957962,-0.029929116368293762,-0.038137007504701614,-0.0388236865401268,0.023194056004285812,0.052299730479717255,-0.004180971998721361,0.011223436333239079,-0.05574444308876991,-0.059528909623622894,0.03572763130068779,-0.05860738083720207,-0.0029432536102831364,-0.0546422116458416,-0.007293224800378084,0.000493228726554662,0.0005051340558566153,-0.0073111411184072495,0.009066605940461159,0.05991790443658829,0.023611946031451225,-0.05472361668944359,0.052313100546598434,0.057826727628707886,0.012935607694089413,-0.050485461950302124,0.05696454271674156,0.044638730585575104,0.06640739738941193,-0.07302025705575943,0.0506787933409214,0.008214805275201797,-0.0635809525847435,-0.023825114592909813,-0.047082141041755676,0.03017875738441944,-0.055403999984264374,0.022815046831965446,-0.037938836961984634,-0.058731287717819214,-0.010577448643743992,0.05562390759587288,0.026684794574975967,-0.026725707575678825,0.015040824189782143,-0.055872250348329544,0.05034845322370529,0.003024156903848052,0.02363320253789425,-0.06029629707336426,0.04411301389336586,-0.030514365062117577,-0.023180795833468437,0.00342218903824687,-0.01749526709318161,0.028994029387831688,-0.013421822339296341,-0.023663751780986786,-0.06568463146686554,-0.024654770269989967,0.04019705578684807,0.021793225780129433,-0.05519799888134003,0.05809894576668739,0.01845020242035389,0.035034675151109695,0.05780799686908722,0.03501610830426216,-0.06953639537096024,0.06041374430060387,-0.004084023181349039,-0.008059208281338215,0.05955050140619278,0.01744091510772705,0.011099813506007195,-0.004720577038824558,0.018274936825037003,-0.051262643188238144,0.0595780573785305,-0.02546863630414009,0.06456030905246735,0.03405668959021568,0.028148850426077843,-0.053985122591257095,-0.05668243020772934,0.06427354365587234,0.044848207384347916,-0.024619517847895622,-0.06456570327281952,0.004778395406901836,0.0403803214430809,-0.027182279154658318,-0.0011878490913659334,0.02058461681008339,-0.0016840274911373854,-0.060753509402275085,-0.0025295179802924395,-0.016033228486776352,-0.049233075231313705,-0.008384784683585167,0.005926371086388826,-0.11208274960517883,-0.03454859182238579,0.06266117095947266,-0.034418847411870956,0.009330717846751213,-0.03484901040792465,-0.01173741091042757,0.027144577354192734,0.028184669092297554,-0.011596028693020344,-0.022974269464612007,-0.05187329649925232,-0.008459671400487423,-0.06231461837887764,0.03449472784996033,-0.05501778423786163,0.009869719855487347,-0.017377864569425583,0.11368688941001892,0.03318845108151436,0.02535632811486721,-0.07303093373775482,0.010298277251422405,-0.09265287965536118,-0.006741676013916731,0.012642614543437958,-0.10216035693883896,-0.01918383687734604,0.047144368290901184,-0.024117963388562202,-0.0614410899579525,-0.07349707186222076,-0.07827345281839371,-0.023181941360235214,0.03300149738788605,-0.1210722029209137,-0.08303536474704742,-0.016617538407444954,-0.07511412352323532,-0.07770358771085739,0.062315333634614944,-0.018171265721321106,-0.0721394345164299,0.06020485237240791,0.006097094621509314,0.046552326530218124,-0.009878218173980713,-0.0748659074306488,-0.12433800846338272,-0.035955723375082016,-0.12794481217861176,-0.06326625496149063,-0.0513497069478035,-0.14532095193862915,-0.08680542558431625,-0.07247788459062576,-0.030154503881931305,-0.06406867504119873,-0.03650129213929176,-0.03841561824083328,-0.05092993751168251,0.0301202479749918,-0.07798928022384644,-0.0598946213722229,-0.0003851411456707865,-0.030056726187467575,0.025629710406064987,-0.02817409485578537,0.018820274621248245,-0.05250439792871475,7.308771455427632e-05,-0.04585808888077736,-0.03435661643743515,-0.008054042235016823,0.006415041629225016,0.007985386066138744,0.009683704935014248,-0.13320191204547882,-0.0028238005470484495,0.023363368585705757,-0.08377789705991745,-0.06165626272559166,-0.012611282989382744,-0.00269831670448184,-0.05988384410738945,0.016106048598885536,-0.11126990616321564,0.025147557258605957,0.061859238892793655,-0.059417419135570526,-0.06566039472818375,-0.12571373581886292,-0.07283446937799454,-0.05849545821547508,0.02396731823682785,-0.002841163193807006,-0.1292266994714737,-0.03283859044313431,0.02135705202817917,0.007559021934866905,-0.0809362456202507,-0.04408496618270874,-0.060389194637537,-0.016811180859804153,0.017335891723632812,0.025700649246573448,0.042023979127407074,-0.10349120944738388,-0.11003969609737396,-0.11044543981552124,0.01720314472913742,-0.10874111950397491,-0.09735159575939178,0.020144861191511154,0.029585618525743484,-0.1700727343559265,-0.1355886310338974,0.03077324479818344,0.044313132762908936,0.03096754662692547,0.022506022825837135,0.08703707903623581,-0.017185349017381668,-0.091079480946064,-0.026871303096413612,-0.06497838348150253,0.022665996104478836,-0.08246596902608871,-0.002234464278444648,0.11643433570861816,-0.13247044384479523,-0.07546411454677582,0.008193548768758774,-0.018819762393832207,0.013241498731076717,0.05077558755874634,0.03062603436410427,-0.023144729435443878,-0.17019499838352203,-0.058993998914957047,-0.07523811608552933,0.0024893623776733875,-0.06998284161090851,0.07246982306241989,0.06714379787445068,-0.02224796824157238,0.0057684252969920635,0.013411212712526321,-0.012425732798874378,-0.013334210962057114,0.02571091800928116,-0.021701881662011147,-0.08775689452886581,-0.04236932843923569,-0.046587590128183365,-0.03767694532871246,-0.17965035140514374,-0.09407874941825867,-0.01423738431185484,0.10218919813632965,-0.012131331488490105,-0.01405895221978426,-0.051325712352991104,0.00052304269047454,0.04183819517493248,0.004216464702039957,-0.09525112062692642,-0.08143063634634018,-0.007676511537283659,-0.07106036692857742,0.020366869866847992,-0.05083049088716507,-0.06744680553674698,0.08698581159114838,0.004512774758040905,0.07546782493591309,0.015071004629135132,-0.012067994102835655,-0.05771923437714577,-0.04605797305703163,0.05010247603058815,0.07257968187332153,-0.03685789555311203,0.08107637614011765,0.14657330513000488,0.11341541260480881,0.16733694076538086,0.13325579464435577,0.0497046560049057,-0.06820982694625854,-0.0038693968672305346,-0.005158004816621542,-0.03807944059371948,0.005938403308391571,-0.06211654841899872,0.06432075798511505,0.10347694158554077,0.09076663106679916,0.04060409590601921,0.08648563921451569,0.08759504556655884,0.11514761298894882,0.1623290479183197,0.019610295072197914,-0.03667237237095833,-0.001970696495845914,-0.042109228670597076,0.05594833940267563,-0.06107989326119423,0.05015898868441582,-0.010636234655976295,0.026054851710796356,-0.049126025289297104,-0.07142383605241776,-0.06219756230711937,-0.044382113963365555,-0.01525700930505991,-0.01564529910683632,-0.04161114990711212,-0.06378015130758286,-0.00370523938909173,0.008906547911465168,4.125436316826381e-05,-0.057624273002147675,0.05361785367131233,-0.0031843273900449276,-0.04446342960000038,0.0033060871064662933,-0.01703941822052002,-0.0630669891834259,0.03400297462940216,-0.04453505203127861,0.057035479694604874,-0.028874700888991356,0.008366060443222523,-0.06075267493724823,0.004421608056873083,-0.05165054276585579,0.05579660087823868,0.0017354647861793637,-0.05231860652565956,-0.0011921762488782406,0.05542130023241043,0.012174157425761223,0.012693911790847778,-0.07492566108703613,0.017047636210918427,0.004469946958124638,-0.03981958329677582,-0.011002471670508385,-0.05821705982089043,0.047257620841264725,-0.0026521021500229836,-0.012300189584493637,0.04870341718196869,0.04700424149632454,-0.05535880848765373,0.0012261285446584225,-0.036829181015491486,-0.08112086355686188,-0.030862700194120407,-0.013174775056540966,0.008489824831485748,0.021759238094091415,0.03669965639710426,0.03866799175739288,-0.0471285879611969,-0.012159307487308979,-0.02329855039715767,0.03835764899849892,-0.04152113199234009,0.0506288968026638,0.00830113422125578,0.025625450536608696,0.019280707463622093,-0.0037122294306755066,-0.010784285143017769,0.013970697298645973,-0.026310782879590988,-0.013935340568423271,0.042074594646692276,-0.00974154844880104,-0.07156272232532501,-0.03586617484688759,0.04641825705766678,-0.003942481707781553,-0.03796321526169777,-0.02648812159895897,-0.0705578550696373,-0.011471620760858059,-0.028404532000422478,-0.038015201687812805,-0.057610321789979935,0.03901205211877823,-0.005559458862990141,-0.022247562184929848,-0.056556619703769684,-0.019801462069153786,0.009106095880270004,0.0416116900742054,0.046833787113428116,-0.05408598855137825,0.020096367225050926,-0.007815112359821796,0.05889612063765526,0.023072637617588043,0.012005846947431564,0.0014766795793548226,-0.04348687827587128,0.03782229870557785,0.0068960729986429214,0.04014194384217262,0.018570775166153908,-0.05321064218878746,0.060591526329517365,0.008269079960882664,0.007948057726025581,0.00421425374224782,0.0066416310146451,-0.015381909906864166,-0.017237022519111633,-0.021358627825975418,-0.05196898430585861,0.0023369977716356516,0.009028312750160694,-0.09100739657878876,0.06528569012880325,0.04382684454321861,0.019551659002900124,0.0412447564303875,0.040501367300748825,-0.06081539765000343,-0.08067459613084793,-0.04011429473757744,-0.01082443818449974,-0.06543879210948944,-0.060691699385643005,-0.10549502074718475,-0.05640549585223198,-0.024262793362140656,-0.05375900864601135,-0.010531766340136528,-0.026120251044631004,-0.0660984143614769,0.02137111872434616,0.006573772989213467,0.007734842598438263,0.01347525417804718,0.04391265660524368,-0.0334421768784523,-0.045454952865839005,-0.1026771292090416,-0.048179734498262405,-0.04359157010912895,-0.0988011434674263,-0.07239978760480881,0.005175749305635691,-0.007523513399064541,-0.018935315310955048,0.03490477427840233,-0.006578453816473484,-0.021676629781723022,-0.048023030161857605,-0.03771253675222397,-0.024145713075995445,0.015436623245477676,0.028893766924738884,0.008425646461546421,0.01484781876206398,-0.051872674375772476,-0.018450157716870308,0.014483120292425156,0.023446092382073402,0.04626965895295143,0.061784714460372925,-0.05578150227665901,-0.015078551135957241,-0.04096570238471031,-0.07167643308639526,-0.03352495655417442,-0.030016714707016945,0.022785531356930733,-0.0890778973698616,0.0010118051432073116,0.06950988620519638,0.03553192690014839,0.07876253873109818,0.043255697935819626,0.060471512377262115,-0.04978759586811066,-0.009623488411307335,0.03994186222553253,-0.0671408623456955,-0.08687924593687057,-0.012643595226109028,0.03061509132385254,-0.018309464678168297,-0.025660265237092972,-0.02093014307320118,-0.010337009094655514,0.04854723438620567,0.08708900958299637,0.06666596978902817,-0.04003766551613808,0.05114195495843887,-0.0018809160683304071,-0.054483696818351746,0.014856020919978619,-0.0016965678660199046,-0.0047165690921247005,0.055048804730176926,0.044274602085351944,0.07726731896400452,0.013274681754410267,-0.09526324272155762,0.02349056676030159,0.0865563303232193,-0.09038271009922028,-0.02072935178875923,0.03510149568319321,-0.03506682068109512,0.030654720962047577,-0.04376624897122383,-0.03921771049499512,0.005845834035426378,-0.02837509661912918,0.03625463321805,-0.02094246819615364,-0.06202387437224388,0.044089652597904205,-0.041497986763715744,0.025556541979312897,0.011750071309506893,0.017669551074504852,-0.04892738163471222,0.006390063092112541,-0.03953876718878746,0.0217466838657856,-0.06634125113487244,-0.01048889197409153,-0.04118204489350319,0.03695306181907654,-0.028617359697818756,-0.00580093078315258,0.007576823700219393,0.04829726368188858,-0.002701075980439782,0.06398502737283707,-0.039694733917713165,0.033681806176900864,0.019808929413557053,0.033981289714574814,-0.026065191254019737,0.014885037206113338,0.03245404735207558,-0.06606324017047882,-0.05093342810869217,-0.04694245755672455,-0.013436357490718365,0.023219745606184006,-0.02627136930823326,-0.0065206135623157024,-0.06339894235134125,-0.05889032036066055,-0.01225583627820015,0.035295139998197556,0.012186111882328987,0.01811281032860279,0.13668645918369293,0.11879150569438934,0.028264621272683144,0.02327856421470642,0.0026106704026460648,0.1430085003376007,0.007215998601168394,0.06665372103452682,-0.09538647532463074,0.0018326588906347752,-0.011584735475480556,-0.05676191300153732,0.03168466314673424,0.021223733201622963,0.0740446001291275,0.047701649367809296,0.013557178899645805,0.1217278465628624,0.11840642988681793,0.1572805494070053,0.169149711728096,0.12172135710716248,0.002383764600381255,-0.03902707248926163,-0.10000264644622803,0.05030974745750427,-0.003981820773333311,0.01964046247303486,0.052377812564373016,-0.0480019636452198,0.020357461646199226,0.031092828139662743,-0.0023357351310551167,0.058460164815187454,0.11199508607387543,-0.00012450826761778444,-0.05522939935326576,-0.12090109288692474,-0.08272778987884521,-0.08049279451370239,0.011993051506578922,-0.032432589679956436,-0.058353450149297714,-0.06866806745529175,-0.02414591796696186,0.040597233921289444,-0.08095045387744904,-0.04206744581460953,0.07710931450128555,0.0730108916759491,-0.0935530886054039,-0.08068177849054337,-0.07979128509759903,-0.08587078005075455,-0.0024170984979718924,-0.033832598477602005,-0.03108043037354946,-0.05001271143555641,0.00875483825802803,-0.07367130368947983,-0.09796561300754547,-0.08493594080209732,0.04223450645804405,0.0494951494038105,-0.03744882345199585,-0.061905257403850555,-0.12010340392589569,-0.041772350668907166,-0.0660063773393631,0.004571050405502319,0.055653225630521774,-0.04028455540537834,-0.06258722394704819,-0.08023718744516373,-0.08275581151247025,-0.08002084493637085,-0.0875370129942894,0.11938974261283875,-0.0851014256477356,-0.08630875498056412,-0.08354523777961731,-0.09929811209440231,-0.05630111321806908,-0.049068350344896317,0.01926456391811371,-0.034760914742946625,0.0014883995754644275,-0.026294924318790436,-0.034225642681121826,-0.002453915774822235,0.007939189672470093,-0.053969595581293106,0.050179123878479004,0.026303313672542572,0.00855229701846838,-0.1505025178194046,-0.0996144711971283,-0.04435143247246742,-0.03631779924035072,0.06476035714149475,0.06419070810079575,0.007468176074326038,0.0015186548698693514,0.029250547289848328,-0.027955543249845505,0.027966752648353577,0.019502583891153336,0.06521741300821304,0.04672883078455925,-0.008350130170583725,-0.014449640177190304,0.015689300373196602,-0.11133494973182678,-0.04014337807893753,0.02802221104502678,-0.043972041457891464,0.0487520806491375,-0.04859836399555206,0.019083866849541664,-0.026501426473259926,-0.04313383623957634,0.1027010828256607,0.01275038905441761,-0.01852787286043167,-0.04780568182468414,0.05936446413397789,-0.0346718467772007,-0.04084791988134384,-0.12042489647865295,-0.04145568609237671,0.0358063168823719,-0.04317905381321907,-0.0304602961987257,0.12311499565839767,0.08084356784820557,-0.03226097673177719,-0.05128859728574753,-0.10259361565113068,-0.013875246979296207,0.02775491401553154,0.06568358093500137,-0.023761894553899765,0.003718276973813772,-0.09601814299821854,-0.051637716591358185,-0.005615552421659231,0.03542272374033928,0.0002331177529413253,0.05612839758396149,0.05562771111726761,0.030189599841833115,-0.023745041340589523,0.03881308436393738,-0.004022508393973112,-0.04700400307774544,0.02900947816669941,-0.015340029262006283,0.12109773606061935,0.12383867055177689,-0.045074544847011566,-0.06397980451583862,-0.03752603754401207,0.0022779307328164577,0.011906192637979984,-0.049483925104141235,0.02515912614762783,0.14869852364063263,0.0015809433534741402,0.05576946958899498,-0.05295012518763542,-0.06190507113933563,-0.0035287728533148766,0.12617087364196777,0.07632408291101456,-0.008227488957345486,0.0040945690125226974,-0.023501142859458923,-0.03079661726951599,0.09179054200649261,0.034267038106918335,-0.07811368256807327,-0.009669600054621696,0.04219716042280197,-0.01636420376598835,0.02559112012386322,-0.035647448152303696,-0.021197549998760223,0.02126571536064148,-0.06259472668170929,-0.042624522000551224,0.0329105406999588,-0.06170552223920822,0.004495954606682062,0.03629053011536598,-0.028779547661542892,-0.0765068531036377,0.06173978000879288,-0.06629616022109985,0.06402462720870972,-0.03815561160445213,-0.05391805246472359,0.06275837868452072,-0.006551567930728197,-0.003106633899733424,0.0404851920902729,0.047870274633169174,0.024741673842072487,7.326110062422231e-05,-0.06807313114404678,0.060321006923913956,-0.048680227249860764,0.025499679148197174,-0.0036648910026997328,-0.03980785235762596,-0.040709178894758224,0.03310956433415413,-0.04369878023862839,0.03319026157259941,-0.013033454306423664,-0.05444612726569176,-0.03946324437856674,-0.007894794456660748,0.00388150243088603,-0.02214083820581436,-0.0398099422454834,0.06348909437656403,0.013283856213092804,-0.024759039282798767,0.006465053651481867,-0.006697062868624926,-0.005689308512955904,-0.033415537327528,-0.020900608971714973,-0.05649363622069359,-0.04515130817890167,0.03782470524311066,0.06362592428922653,-0.0072830840945243835,-0.051438216120004654,0.016239110380411148,-0.033387042582035065,-0.06173953786492348,0.04243765026330948,-0.004630131646990776,-0.034245338290929794,0.017376596108078957,-0.018092038109898567,0.020885715261101723,-0.03811709210276604,-0.06523963809013367,-0.0608929842710495,0.045888759195804596,0.002113660331815481,0.0470440499484539,0.010274296626448631,0.039261456578969955,-0.029446924105286598,0.046975210309028625,-0.04000981152057648,-0.07073327153921127,-0.060801248997449875,-0.02534131519496441,0.05553771182894707,0.05610978230834007,-0.030655449256300926,0.010691714473068714,-0.055413104593753815,-0.017218416556715965,-0.02330983802676201,0.03811125457286835,-0.023943785578012466,0.010475583374500275,-0.06588470190763474,-0.015696825459599495,0.01161886565387249,0.0029608188197016716,-0.014534816145896912,-0.024513300508260727,-0.045398421585559845,-0.03295331820845604,-0.013871137984097004,0.03447552025318146,0.06650145351886749,0.015074986964464188,0.02839098498225212,0.0089946947991848,-0.010150686837732792,0.021796351298689842,0.04503761976957321,-0.06814110279083252,0.03434165567159653,-0.03253887593746185,-0.06269647181034088,0.020008763298392296,-0.051026806235313416,-0.03688929229974747,-0.014185461215674877,-0.019189437851309776,0.010373992845416069,0.04676765576004982,-0.0074707441963255405,-0.016032835468649864,0.04706153646111488,-0.02265893667936325,0.05176388844847679,-0.06355144083499908,-0.0033887007739394903,-0.07722878456115723,0.039559874683618546,-0.023142458871006966,-0.04819876700639725,-0.047720473259687424,0.021904628723859787,-0.04010092094540596,-0.014255017042160034,-0.017837518826127052,0.001279644900932908,-0.021224593743681908,-0.06533198803663254,0.008863218128681183,0.04754149913787842,0.04582032933831215,-0.08319852501153946,0.004013236612081528,0.025941507890820503,0.06338689476251602,-0.0021255097817629576,0.05129487067461014,-0.01289383228868246,-0.010401172563433647,-0.0610194094479084,0.012129408307373524,-0.07399465888738632,-0.01573919877409935,-0.04938916862010956,-0.01542749721556902,-0.05763764679431915,-0.00835388246923685,0.0058681173250079155,-0.005999923218041658,-0.0624624602496624,-0.009539898484945297,0.02073320746421814,-0.011313932947814465,-0.061390575021505356,-0.07724954932928085,-0.006026204209774733,-0.04537270590662956,-0.026815373450517654,0.022302906960248947,0.0040825107134878635,0.00669892318546772,-0.061791110783815384,-0.03330013155937195,0.0011615833500400186,-0.0014349143020808697,-0.05646444484591484,0.008466665633022785,-0.052764784544706345,-0.0069013796746730804,0.03186136111617088,0.020364243537187576,-0.03795219212770462,0.019553745165467262,0.05482030659914017,0.023657193407416344,-0.009205418638885021,0.05044453218579292,-0.0018390258774161339,-0.03522927314043045,-0.02871701866388321,-0.06472712755203247,0.004651959985494614,0.0388326495885849,0.00706143444404006,0.04355495423078537,-0.043774548918008804,0.00840474758297205,-0.07245709747076035,-0.026508230715990067,-0.07473067194223404,-0.06325587630271912,-0.04710163176059723,0.044154923409223557,-0.01618434675037861,0.03260423615574837,-0.040710095316171646,-0.0544782355427742,-0.04992561414837837,-0.053803179413080215,0.05446082726120949,-0.04800378158688545,-0.058974627405405045,0.05237380042672157,-0.029517343267798424,0.042759768664836884,0.01142366323620081,0.0025753192603588104,0.016967257484793663,-0.040504321455955505,-0.00494328374043107,-0.008865253999829292,-0.020368600264191628,0.02936803735792637,-0.06303170323371887,0.0057127224281430244,-0.022990116849541664,0.004204154014587402,0.021838340908288956,0.027376709505915642,0.061856940388679504,0.02924426458775997,-0.014106258749961853,0.057367559522390366,0.061482593417167664,0.03302423283457756,0.05450206995010376,-0.002478544134646654,-0.022805199027061462,-0.004062899388372898,-0.014784248545765877,-0.015608605928719044,-0.008692590519785881,0.04823501408100128,0.013209566473960876,0.0308978334069252,0.02693544328212738,-0.00788867473602295,0.03584633767604828,0.019275443628430367,0.00583605794236064,-0.015918923541903496,-0.00871993787586689,0.002672084840014577,0.03565702587366104,0.015108554624021053,-0.0190652534365654,-0.02955431304872036,-0.033725541085004807,0.06493696570396423,0.06090777367353439,-0.013175726868212223,5.184015026316047e-05,0.05336935073137283,-0.06046547368168831,-0.061652109026908875,0.007909846492111683,-0.03392097353935242,0.038787830621004105,-0.0216129831969738,-0.1599998027086258,-0.03687209635972977,0.048582568764686584,0.00807859469205141,-0.048750750720500946,-0.08566336333751678,-0.03736007586121559,-0.03410518169403076,0.09981585294008255,0.011596610769629478,0.06595407426357269,-0.023003755137324333,0.009727002121508121,0.05713965743780136,-0.14167046546936035,-0.19336026906967163,-0.10165546834468842,-0.041397951543331146,-0.04714979976415634,-0.008747977204620838,-0.08384976536035538,0.025954265147447586,0.057438623160123825,0.048386912792921066,0.03131142258644104,-0.020206443965435028,0.048190683126449585,-0.03883562982082367,0.08125502616167068,-0.000781888491474092,-0.01931050419807434,-0.04034886136651039,-0.0151244280859828,0.007539814338088036,0.03661465272307396,0.067615807056427,0.1273707002401352,-0.1251826137304306,0.09700056165456772,0.046952471137046814,0.0256661344319582,0.04877312481403351,0.0471535325050354,0.03672153502702713,-0.025749022141098976,0.006035650614649057,0.015346674248576164,0.03322071582078934,0.13287073373794556,-0.18759377300739288,-0.025241028517484665,-0.028412356972694397,-0.12245925515890121,-0.02353258617222309,0.058650869876146317,0.013318801298737526,0.011693994514644146,0.0036744833923876286,0.04318550229072571,-0.024051401764154434,0.0823700949549675,-0.06529568880796432,0.015244638547301292,0.07559425383806229,-0.10858304798603058,-0.14421634376049042,-0.01145074050873518,-0.08359817415475845,0.04699863865971565,0.06627435237169266,-0.005436372943222523,-0.06488759070634842,-0.051955632865428925,0.003496297402307391,-0.11769220232963562,0.05171873793005943,0.024231646209955215,-0.03426387161016464,0.037129856646060944,0.09506122022867203,-0.07276461273431778,-0.013636709190905094,-0.06432433426380157,0.06689878553152084,-0.03763442113995552,0.0209311805665493,-0.0005706787342205644,-0.004960179794579744,0.13447979092597961,-0.17045661807060242,-0.02932845987379551,0.02358182892203331,0.05018747225403786,0.04663842171430588,0.08144734054803848,0.06778989732265472,-0.031228628009557724,0.016919348388910294,-0.02007007785141468,-0.02258019521832466,-0.04012669250369072,0.0391446128487587,0.06597062945365906,-0.11601780354976654,-0.11369598656892776,0.019206281751394272,0.08354441821575165,-0.04427322372794151,-0.1925029754638672,0.017585335299372673,0.09044201672077179,-0.12039133161306381,-0.007467306684702635,0.0111991036683321,-0.046160150319337845,-0.005425342358648777,0.060261618345975876,-0.02365470863878727,-0.24896429479122162,-0.17960374057292938,0.09955785423517227,0.08824698626995087,0.05246322229504585,0.11564209312200546,0.08022158592939377,0.04147448018193245,-0.06995347887277603,-0.11884699016809464,-0.0239692535251379,-0.05708443000912666,-0.052566204220056534,-0.03414801135659218,0.028196176514029503,0.15294207632541656,-0.017691433429718018,-0.02983955293893814,-0.10596728324890137,-0.09894027560949326,0.26785629987716675,0.0036199302412569523,0.008864345028996468,-0.12908399105072021,-0.1325063705444336,-0.04962674528360367,0.004059489816427231,0.06658961623907089,0.007629553787410259,0.050437089055776596,0.18299144506454468,-0.03216518089175224,0.09509757161140442,-0.04121122509241104,-0.24114668369293213,-0.03437430411577225,0.044116679579019547,-0.082608662545681,-0.3010597229003906,-0.15658637881278992,-0.07899829745292664,-0.052886974066495895,-0.0066923461854457855,-0.03650515154004097,-0.05008714646100998,-0.11991745978593826,0.034766361117362976,0.1206926703453064,-0.022274311631917953,-0.047711197286844254,-0.04578793793916702,0.2655499279499054,-0.014947925694286823,-0.27047502994537354,-0.12677480280399323,-0.04374236613512039,0.03553811460733414,-0.031923700124025345,-0.02144756354391575,0.023938974365592003,-0.052380166947841644,-0.1479419618844986,-0.11277806013822556,0.16383542120456696,0.10832992196083069,0.1096031665802002,0.11412744969129562,0.032140057533979416,0.04160492494702339,0.04011237993836403,-0.052415214478969574,-0.039585527032613754,0.0247653741389513,0.06573078036308289,-0.060181424021720886,0.017548777163028717,0.0019184034317731857,0.031410980969667435,0.05600661784410477,0.03776613995432854,0.04652711749076843,-0.02383876033127308,-0.015939826145768166,-0.04483718425035477,-0.04258820414543152,-0.06525447964668274,-0.031468600034713745,-0.01662003993988037,-0.035463422536849976,0.0373007096350193,-0.004928821697831154,0.011984356679022312,-0.05665719136595726,-0.011854656971991062,-0.000225893672904931,0.05942272022366524,-0.0005555550451390445,-0.011435111984610558,-0.045763049274683,0.026034515351057053,0.0027494512032717466,0.06030029058456421,-0.004559254739433527,-0.03236667439341545,0.06490650027990341,-0.06855985522270203,-0.07753440737724304,-0.030878862366080284,-0.03330974653363228,0.07329751551151276,0.05439206585288048,0.03943615406751633,-0.08235563337802887,-0.1022263616323471,0.027463778853416443,0.00883619487285614,-0.037150632590055466,-0.06596361100673676,0.05954864248633385,0.03388654440641403,-0.09831414371728897,-0.05502079427242279,-0.024380136281251907,0.02914753556251526,0.01106635108590126,0.058283351361751556,-0.07018856704235077,-0.08364417403936386,-0.14568132162094116,0.06614484637975693,-0.03826899453997612,-0.05308804288506508,0.024856600910425186,-0.008765030652284622,0.027976641431450844,0.01276390440762043,-0.06952971965074539,0.020282801240682602,-0.06943345069885254,-0.017970925197005272,-0.11409301310777664,-0.004020462278276682,-0.04325680807232857,0.04231969639658928,0.058506764471530914,0.017983537167310715,-0.03964589536190033,-0.06602732092142105,-0.043413035571575165,0.03298215940594673,0.061739854514598846,-0.10291439294815063,-0.023326097056269646,-0.13506512343883514,-0.0980614647269249,-0.2202042192220688,-0.10499285161495209,-0.030992647632956505,0.04352860897779465,0.023956216871738434,0.025852834805846214,-0.02754257619380951,0.04662416875362396,0.03894326835870743,0.0574050135910511,0.10699649155139923,-0.07899351418018341,0.014991332776844501,0.021550118923187256,0.17301307618618011,0.06527198851108551,-0.08144550025463104,-0.06380604952573776,0.03823931887745857,0.04642186313867569,-0.04001922532916069,-0.007676305249333382,0.04753941297531128,-0.0450131818652153,0.007823173888027668,0.02909301407635212,-0.1410800963640213,0.03026760183274746,0.1810969114303589,0.08436640352010727,0.11390437930822372,-0.025060227140784264,-0.025255588814616203,0.031477343291044235,0.15537089109420776,0.04072587564587593,-0.045657429844141006,0.004717390052974224,0.008963108994066715,0.048887643963098526,-0.25524523854255676,-0.12917456030845642,-0.003917943220585585,0.13010559976100922,-0.05995142459869385,0.02920982986688614,0.17429260909557343,0.030938412994146347,0.09839925169944763,0.2544887065887451,-0.005443596746772528,-0.04880274459719658,-0.01753360591828823,0.02931012399494648,-0.04226085543632507,0.18795880675315857,0.03654685616493225,-0.021987447515130043,0.025087125599384308,-0.22684471309185028,-0.15856926143169403,0.05182162672281265,-0.021581925451755524,-0.00797753594815731,0.24781209230422974,-0.03870999068021774,-0.014779656194150448,-0.04632744938135147,-0.04403034225106239,0.0581229068338871,0.2536078989505768,0.024810677394270897,-0.06059946492314339,0.003999330569058657,-0.1279931515455246,-0.17253440618515015,0.14149761199951172,-0.08245516568422318,0.0071798935532569885,0.19751885533332825,-0.06332582235336304,0.05805370956659317,0.007510829251259565,-0.04395962879061699,-0.04606589674949646,0.18015721440315247,0.06007095053792,-0.029264185577630997,0.0407906211912632,-0.07716675847768784,0.036332037299871445,0.0962546318769455,-0.07939650863409042,0.08853106200695038,0.06758758425712585,0.007738799322396517,-0.0006952047697268426,0.011074170470237732,-0.02069929614663124,0.06242094188928604,0.15218354761600494,-0.06133980304002762,0.05263787880539894,0.06226954236626625,0.07892349362373352,0.04003727063536644,0.05260629951953888,0.007027766201645136,0.09192202985286713,0.18717794120311737,-0.046341389417648315,-0.0019381444435566664,0.05989660695195198,-0.05502191558480263,0.05043695867061615,-0.05758579820394516,-0.023997033014893532,-0.033219367265701294,0.08946800976991653,0.14185777306556702,0.03486938029527664,-0.12170927226543427,-0.0566859170794487,0.16715207695960999,0.09191882610321045,-0.09437491744756699,-0.0003424672468099743,-0.05142798647284508,-0.05100127309560776,0.04141400009393692,-0.057177428156137466,-0.07750909775495529,-0.07649721950292587,-0.11461420357227325,-0.0868178978562355,-0.08254978060722351,-0.10129494965076447,0.04349033907055855,-0.011270285584032536,-0.035770583897829056,0.03500828146934509,0.033577341586351395,-0.03981432318687439,0.04504511505365372,-0.01368628442287445,0.06284765154123306,-0.030916620045900345,0.05845559760928154,0.003015772672370076,0.001388343283906579,-0.00630772951990366,0.0007256746757775545,-0.07745861262083054,-0.05793089419603348,-0.0549343042075634,0.033645592629909515,-0.02134343981742859,-0.049379993230104446,-0.026604756712913513,0.0018248275155201554,-0.06082766875624657,0.048518843948841095,0.024879448115825653,-0.051997750997543335,-0.0628928691148758,-0.06329064816236496,-0.061392642557621,-0.021427219733595848,0.019744476303458214,0.04210981726646423,0.02789173275232315,-0.024749407544732094,-0.024061696603894234,-0.03176577389240265,0.04909165948629379,-0.07079574465751648,-0.06847461313009262,0.038908347487449646,0.028460124507546425,0.0009155074367299676,-0.08078315109014511,0.017034154385328293,-0.09223076701164246,0.0009095481364056468,0.03962947055697441,-0.030835488811135292,-0.02898753061890602,0.038920991122722626,-0.018671806901693344,-0.038500551134347916,-0.03049585223197937,-0.08109189569950104,-0.034060653299093246,-0.012848126702010632,-0.07352910935878754,-0.056422293186187744,-0.0514640174806118,-0.11570456624031067,-0.048625264316797256,-0.060537271201610565,0.030567822977900505,0.024594441056251526,-0.012087369337677956,-0.020210418850183487,0.014881380833685398,-0.06693468242883682,-0.03523460775613785,-0.15326149761676788,-0.037082426249980927,-0.04975176975131035,0.039033759385347366,0.03622268885374069,0.02232167311012745,0.054695192724466324,0.03604818135499954,-0.06355851143598557,0.018121451139450073,-0.004280901048332453,-0.020141340792179108,-0.03150888532400131,-0.15248848497867584,-0.14779804646968842,-0.06902264058589935,-0.010779641568660736,-0.012797915376722813,-0.05810144916176796,0.03989603742957115,-0.03927052766084671,0.05058356747031212,0.05014796927571297,-0.026166943833231926,-0.008409536443650723,-0.0374797061085701,0.04545551538467407,0.023148108273744583,-0.14056295156478882,-0.05062491074204445,-0.11196842789649963,0.01445770263671875,-0.005484769120812416,0.010875602252781391,-0.024945473298430443,-0.06145127862691879,-0.09361188858747482,0.006472474429756403,0.0041832998394966125,0.01049814186990261,-0.03719780594110489,0.03553086146712303,-0.023455621674656868,0.04535895958542824,-0.08467783778905869,-0.06143813952803612,0.017431899905204773,-0.035316694527864456,-0.03988902270793915,-0.060641687363386154,0.019081715494394302,-0.10875949263572693,0.017840659245848656,-0.030298996716737747,-0.050689246505498886,0.06256360560655594,0.05624536797404289,0.03853271156549454,-0.08512406796216965,-0.17947392165660858,-0.03879031538963318,0.05384942516684532,-0.08442710340023041,0.009772270917892456,0.024289650842547417,0.08373405784368515,0.016612179577350616,0.027084916830062866,-0.005048604216426611,-0.04799187555909157,-0.06381019204854965,-0.05695948004722595,-0.0024892569053918123,-0.07132403552532196,-0.11349781602621078,-0.0415072925388813,-0.03559018671512604,-0.04616989195346832,-0.01523713581264019,-0.0209125354886055,-0.01886872760951519,0.10186438262462616,0.041397031396627426,0.009008736349642277,-0.04252268746495247,0.02745509333908558,0.005650870501995087,-0.031845174729824066,-0.02243058942258358,-0.18490532040596008,-0.06993427872657776,-0.0026173098012804985,-0.02627572789788246,-0.09960822761058807,-0.03479337692260742,0.03843933716416359,0.08666801452636719,0.11952459067106247,0.05149155482649803,-0.06450754404067993,-0.06095542386174202,0.020620131865143776,0.025743048638105392,0.06125194951891899,-0.08566592633724213,-0.0991889014840126,0.07611585408449173,-0.049996718764305115,-0.10705988854169846,-0.012439603917300701,-0.0703236311674118,0.09125789999961853,0.16583505272865295,0.05716221407055855,-0.006141114514321089,-0.06318330764770508,-0.01345415972173214,-0.06169463321566582,-0.003588037798181176,-0.1286887377500534,-0.0018511338857933879,-0.014380146749317646,-0.04118075221776962,0.020042749121785164,-0.08743211627006531,0.02134471945464611,0.12221988290548325,0.10953168570995331,0.023145565763115883,0.028459828346967697,-0.04606088995933533,-0.06177710369229317,0.04802269488573074,0.06576348841190338,-0.04502850025892258,-0.058047231286764145,-0.10615082085132599,-0.10931830108165741,-0.06198505684733391,-0.10022172331809998,-0.04614383354783058,0.09952312707901001,0.16763165593147278,0.04785846173763275,-0.11162663996219635,-0.034858085215091705,0.05346055328845978,0.005076750181615353,0.0813094973564148,0.033021342009305954,0.11148516088724136,-0.014658165164291859,-0.020084703341126442,-0.07276908308267593,-0.060204166918992996,0.007636507973074913,-0.06023295223712921,0.06066364794969559,-0.04232676327228546,-0.015847254544496536,-0.017143378034234047,0.03862541541457176,-0.06602595746517181,0.0011042198166251183,0.02109215408563614,-0.0927831381559372,-0.03758282959461212,-0.016580550000071526,-0.011616572737693787,0.04553087800741196,-0.03664141148328781,-0.04683863744139671,-0.030559860169887543,0.02700147032737732,0.00469596404582262,-0.06427798420190811,0.04353690519928932,-0.003920450806617737,-0.03501509502530098,-0.02083987556397915,-0.00016508897533640265,0.05832008644938469,-0.016491500660777092,-0.04571159929037094,0.05227654427289963,-0.021258562803268433,-0.039234012365341187,-0.033967774361371994,-0.010526442900300026,-0.02315293252468109,0.048889487981796265,-0.02899414859712124,-0.03057493455708027,0.042412169277668,-0.0857943445444107,-0.07011640816926956,-0.1283923089504242,-0.06253653019666672,-0.1221015527844429,-0.08417763561010361,-0.04870466887950897,0.011874789372086525,-0.04147184267640114,-0.0259277131408453,-0.04436399042606354,0.03208938613533974,-0.04333220422267914,-0.046113237738609314,-0.060778405517339706,-0.1355961263179779,-0.12644648551940918,-0.050019070506095886,-0.025263039395213127,0.03187110275030136,-0.07095642387866974,-0.16412155330181122,0.017017047852277756,-0.05666261166334152,-0.06708677858114243,-0.03568670526146889,0.004256511107087135,0.007959922775626183,0.04866228252649307,0.04862375184893608,-0.061417557299137115,-0.011449859477579594,-0.031489741057157516,0.009620826691389084,-0.015612010844051838,-0.07754383236169815,0.009570603258907795,-0.03899405896663666,-0.058021027594804764,-0.013551704585552216,-0.02891680598258972,0.029910072684288025,-0.06276063621044159,-0.023176416754722595,-0.09428033977746964,-0.13820797204971313,-0.10289101302623749,0.020335368812084198,0.044731829315423965,-0.058721013367176056,-0.034325387328863144,0.05611780285835266,-0.024714412167668343,0.02934063784778118,0.029147954657673836,0.007364497520029545,0.0348314605653286,0.041415534913539886,-0.0504278838634491,-0.10960543900728226,-0.15868158638477325,-0.003879030467942357,-0.004339009057730436,-0.024465451017022133,0.0995333269238472,0.11897167563438416,-0.0918620377779007,-0.10561231523752213,0.050153154879808426,0.04018907994031906,-0.013515687547624111,-0.011670613661408424,0.015970176085829735,-0.00011664232442853972,-0.03327500447630882,-0.11405927687883377,0.019782980903983116,0.03727118670940399,-0.0624496228992939,0.07339951395988464,0.07038082927465439,-0.0088018998503685,-0.10443877428770065,0.013646824285387993,0.07990221679210663,0.06427647173404694,0.019765958189964294,0.009881274774670601,0.017681973055005074,-0.08751989156007767,-0.036697231233119965,-0.030775902792811394,0.015634821727871895,-0.046093281358480453,-0.0621739886701107,-0.03767378628253937,-0.08153486251831055,-0.11539276689291,-0.011592322960495949,0.0565272718667984,-0.06440678238868713,-0.003376023145392537,0.04466304928064346,-0.05128270387649536,0.02341560646891594,-0.05246932432055473,-0.04126443713903427,-0.06490907818078995,-0.1930254101753235,-0.06916052848100662,-0.07681915163993835,-0.11790510267019272,-0.07151671499013901,0.07282903790473938,0.042662713676691055,0.018137114122509956,-0.04958740249276161,-0.035314030945301056,0.0407223254442215,0.030833223834633827,-0.04781205579638481,-0.0025449879467487335,0.006988124921917915,-0.08598785102367401,-0.05412401258945465,0.012818677350878716,0.03286215662956238,-0.0028721464332193136,-0.04911347106099129,0.006095662713050842,-0.055249787867069244,0.03045952506363392,0.028062790632247925,-0.06320787966251373,-0.13873158395290375,-0.11887827515602112,-0.06971889734268188,-0.07512742280960083,-0.04986858740448952,-0.1388092041015625,0.025328319519758224,0.04681862145662308,0.029117345809936523,0.0012873909436166286,0.00928130466490984,-0.06555870175361633,-0.011417477391660213,-0.06268969923257828,0.043543435633182526,-0.13230369985103607,-0.0670815035700798,0.015615164302289486,-0.09049562364816666,0.032237015664577484,-0.113045334815979,0.05037442967295647,0.07062717527151108,-0.05477377399802208,-0.037195976823568344,-0.02186637744307518,0.06185156852006912,-0.05284983664751053,-0.02071503922343254,0.02425331436097622,0.0014836754417046905,-0.10003351420164108,0.009150149300694466,-0.09178218990564346,-0.09972440451383591,-0.09204722940921783,-0.11723212152719498,-0.017956649884581566,0.06609566509723663,-0.04857976734638214,0.030721265822649002,-0.09877844899892807,-0.05455901101231575,0.046079542487859726,0.009950097650289536,-0.010204770602285862,-0.06137266382575035,-0.02546868287026882,-0.059068597853183746,-0.04052490368485451,-0.07463489472866058,-0.053167399019002914,0.03966227546334267,-0.006499267183244228,0.03719078749418259,-0.05993550270795822,0.009048438630998135,0.003317419905215502,0.06238092854619026,-0.06316450983285904,-0.014807621948421001,-0.015605680644512177,-0.06655876338481903,0.03521166741847992,0.03702787682414055,-0.039165593683719635,-0.05850974842905998,-0.1123047024011612,0.0017467420548200607,-0.0215542484074831,-0.04114082083106041,-0.041686274111270905,0.03753748908638954,-0.02454577386379242,-0.0148146478459239,0.042180754244327545,0.04185502603650093,0.05741694197058678,-0.017142757773399353,-0.00039063298027031124,0.05035088211297989,0.0227726548910141,-0.04995530843734741,-0.005041114520281553,0.04926678538322449,-0.022782787680625916,-0.03194406256079674,-0.03695305436849594,0.005561296362429857,-0.012390821240842342,0.07336071878671646,-0.01607425883412361,0.04516683891415596,0.10512425005435944,0.12921342253684998,0.03600672632455826,0.02109232172369957,0.03306368365883827,-0.09938385337591171,-0.03312915191054344,-0.05316238850355148,0.05026187375187874,0.03460242971777916,-0.01737283170223236,-0.0147458640858531,0.014535332098603249,0.06071687862277031,0.10659922659397125,0.17447829246520996,0.11414285004138947,0.04759964719414711,0.07099966704845428,-0.020940396934747696,0.08575960993766785,-0.02491908147931099,0.011586698703467846,0.017681464552879333,0.06395862251520157,0.04653117060661316,0.05539480224251747,0.08687093108892441,0.06954824179410934,-0.10444673150777817,-0.12070800364017487,0.025638096034526825,0.021693464368581772,-0.011722669936716557,-0.05725914612412453,-0.11457723379135132,0.014261278323829174,-0.024607373401522636,0.04463905841112137,-0.05762059986591339,-0.003428308293223381,0.04316673427820206,-0.021188296377658844,0.07540670037269592,-0.019056471064686775,-0.09379764646291733,0.10126209259033203,-0.04853655770421028,-0.05372560769319534,-0.04104441776871681,-0.0430317148566246,-0.01843806728720665,-0.04320189356803894,0.051314905285835266,0.03376450017094612,0.0252019502222538,0.027615096420049667,-0.03930206596851349,0.018015524372458458,0.10339927673339844,0.13267368078231812,0.04427802190184593,-0.11327434331178665,0.08185913413763046,-0.058567073196172714,-0.15874427556991577,0.008575542829930782,-0.005511077586561441,0.04861409217119217,0.013914903625845909,0.06486015766859055,0.0005983909359201789,-0.15308617055416107,0.08449634909629822,0.04186638817191124,-0.023963050916790962,0.04256642237305641,-0.061701804399490356,-0.0032598627731204033,-0.08402145653963089,-0.03337451070547104,-0.08560257405042648,-0.04069160670042038,0.015172482468187809,-0.021066755056381226,0.035577546805143356,0.006838902365416288,0.003178211161866784,0.16142620146274567,0.03644686937332153,-0.06043369323015213,-0.12847472727298737,-0.09055158495903015,-0.015842512249946594,-0.08221090584993362,-0.15608103573322296,-0.0568774975836277,-0.040043458342552185,0.027999307960271835,-0.06567428261041641,-0.017045864835381508,0.040658023208379745,0.16729208827018738,0.13190244138240814,-0.050187185406684875,-0.05638516694307327,0.01807575114071369,-0.06596139818429947,-0.015190835110843182,0.04049442335963249,-0.05948757752776146,-0.08705022186040878,0.02761765383183956,-0.017200510948896408,-0.03303556516766548,-0.036097124218940735,-0.06002039462327957,-0.001995380502194166,0.029394634068012238,0.007676644716411829,-0.13769736886024475,0.01830601878464222,-0.1860283613204956,0.058275289833545685,0.01626303233206272,-0.041099246591329575,-0.08264472335577011,-0.024646736681461334,0.015577627345919609,0.048314448446035385,-0.034299883991479874,0.009001128375530243,0.03283917158842087,0.06434917449951172,0.0453222282230854,-0.15893203020095825,-0.008930857293307781,-0.21361571550369263,-0.027395952492952347,-0.10193135589361191,-0.017802176997065544,-0.045962292701005936,-0.03816285356879234,0.030628763139247894,0.029340315610170364,-0.048256367444992065,0.05509759858250618,0.014522062614560127,-0.002680997597053647,0.09391745924949646,-0.07558978348970413,0.008741647005081177,-0.04454372450709343,-0.03705435246229172,-0.027662226930260658,-0.009265748783946037,-0.023376839235424995,-0.015649812296032906,0.05042119324207306,0.017713405191898346,0.0289927888661623,0.0012363037094473839,0.07729972898960114,0.02715546451508999,0.15913037955760956,0.14710181951522827,0.1010584682226181,-0.09403014928102493,-0.09754141420125961,-0.026112811639904976,-0.10354140400886536,-0.055377814918756485,-0.03445431962609291,0.007087407633662224,0.0659223347902298,0.0215121041983366,0.05619160458445549,0.13088417053222656,0.15489663183689117,0.05923028290271759,-0.05899653211236,-0.016777340322732925,0.02880322001874447,-0.034541744738817215,-0.06457497924566269,0.03776954114437103,0.010304666124284267,0.06400377303361893,0.04366406053304672,0.0018596332520246506,-0.062400806695222855,-0.057988740503787994,0.018729710951447487,0.04649706929922104,-0.04001022130250931,-1.2302399227337446e-05,0.0013412635307759047,0.019782520830631256,0.017817910760641098,0.07329590618610382,0.017842866480350494,-0.06430109590291977,0.013884441927075386,0.00254230503924191,0.05159451439976692,-0.0618777796626091,0.03754410147666931,0.08668730407953262,-0.014577151276171207,-0.0436866469681263,0.023864692077040672,-0.053643833845853806,0.02913798578083515,0.023418046534061432,0.05044827610254288,0.03265712410211563,0.0007824103231541812,-0.028625156730413437,0.06244572252035141,0.016054265201091766,-0.03555046766996384,-0.021802784875035286,-0.009101531468331814,-0.11003929376602173,-0.14416706562042236,-0.1353697031736374,-0.04624143987894058,-0.11127106100320816,-0.07628417760133743,-0.05359521508216858,-0.021854884922504425,0.051171574741601944,-0.01584950089454651,-0.035901524126529694,0.01988590694963932,-0.000616351782809943,-0.0449109748005867,-0.017750581726431847,-0.049059998244047165,-0.18606139719486237,-0.175858274102211,-0.07666750997304916,-0.1118611991405487,-0.08804217725992203,-0.17112497985363007,-0.08422813564538956,0.02600461058318615,-0.07130935788154602,-0.07756348699331284,0.010962081141769886,-0.013915849849581718,-0.013801861554384232,-0.00390229350887239,-0.009363198652863503,-0.03805745020508766,-0.04364936426281929,0.06981900334358215,0.0345335491001606,-0.07034872472286224,-0.16478073596954346,0.07169802486896515,0.19278807938098907,0.1297392100095749,-0.01696871407330036,0.039277903735637665,0.016670148819684982,-0.007817912846803665,0.002297541592270136,-0.01849457621574402,0.06295649707317352,0.05931752920150757,-0.021448388695716858,-0.11762722581624985,-0.0772772878408432,-0.1799563467502594,-0.04741717502474785,0.10811597853899002,0.14875227212905884,0.03209519013762474,0.029182491824030876,0.011427522636950016,0.002760990522801876,-0.12097563594579697,0.056530024856328964,-6.171769928187132e-05,-0.010775676928460598,0.007540683262050152,0.05248996242880821,0.04048871248960495,-0.10518590360879898,-0.03456415981054306,0.040705107152462006,0.1425001472234726,-0.020957980304956436,-0.03783121332526207,-0.05551564320921898,-0.03311087563633919,-0.0888906940817833,-0.05532030388712883,0.06179112568497658,0.1249488964676857,0.01800665445625782,-0.010638576932251453,0.03566329553723335,-0.042151473462581635,0.14286744594573975,0.18344931304454803,0.13562536239624023,-0.006541586481034756,-0.05560631304979324,-0.04631828889250755,-0.012675778940320015,-0.18241961300373077,0.010013123042881489,0.045795291662216187,0.20032678544521332,0.08014673739671707,0.023370670154690742,0.17855462431907654,0.039667099714279175,0.07071911543607712,0.1711018830537796,0.10170066356658936,-0.00736205605790019,0.06537684798240662,-0.06265606731176376,0.05216671898961067,0.03617238625884056,0.06733183562755585,0.10329220443964005,-0.00304727372713387,0.00661780359223485,-0.100648432970047,0.05054490268230438,-0.1007319986820221,-0.14916282892227173,0.09586494415998459,0.15770696103572845,0.050442278385162354,0.01719168946146965,-0.00885245855897665,0.06121944263577461,-0.10222139954566956,0.08386629819869995,0.10747925192117691,-0.16181282699108124,-0.052806224673986435,-0.03281503543257713,-0.07018116116523743,-0.0762542188167572,-0.1763654500246048,0.016702011227607727,0.17646931111812592,0.0630633607506752,-0.010308624245226383,-0.002430232474580407,0.019958965480327606,0.057722847908735275,0.12655387818813324,0.07562275230884552,-0.017032572999596596,-0.022013122215867043,0.034882351756095886,0.035870183259248734,-0.028973054140806198,-0.20252859592437744,0.0781235471367836,0.132757306098938,-0.0272848941385746,-0.059517212212085724,-0.03112354502081871,-0.04482918977737427,0.10349291563034058,0.05224062502384186,0.09432768821716309,-0.0020416202023625374,-0.04937124252319336,-0.03963146731257439,0.004576837178319693,-0.16300757229328156,-0.021252378821372986,0.20124094188213348,0.2367735058069229,-0.010805504396557808,-0.02224111743271351,0.035240430384874344,-0.06069779023528099,-0.1460103690624237,-0.02246699668467045,-0.09476672112941742,-0.12783434987068176,-0.003912174608558416,-0.007990223355591297,-0.10413312911987305,-0.06835753470659256,0.06230878829956055,0.26107996702194214,0.14705601334571838,0.036672335118055344,-0.06054355576634407,0.02982623688876629,0.05033839866518974,-0.1758188158273697,-0.12292098999023438,-0.07615598291158676,-0.06293454766273499,0.01460216287523508,-0.029789548367261887,-0.023101216182112694,-0.011909779161214828,-0.028735870495438576,0.05026683956384659,0.006823031231760979,-0.036810241639614105,0.04576762020587921,0.025344794616103172,0.044731348752975464,-0.05808858200907707,0.042697370052337646,0.09549412876367569,0.016026822850108147,0.031821783632040024,0.05514059215784073,0.053081195801496506,0.04673939570784569,-0.04752728343009949,0.014275480061769485,0.012237779796123505,0.01693391054868698,0.022670874372124672,0.018580954521894455,0.04825752601027489,-0.03856680914759636,-0.018933424726128578,0.060071464627981186,0.02228541485965252,0.02884896658360958,-0.02970493771135807,0.023140542209148407,-0.03522919863462448,0.03986947610974312,-0.06347911804914474,-0.01688406616449356,0.01913183555006981,0.015009737573564053,-0.02493649534881115,0.03647042438387871,-0.008648785762488842,0.010425957851111889,0.042738549411296844,-0.0638217031955719,0.03289313614368439,0.0445028655230999,-0.05267410725355148,-0.06623639166355133,-0.015917889773845673,0.027497252449393272,-0.029681604355573654,0.05773257091641426,-0.010672633536159992,0.04130847007036209,0.05637303367257118,-0.054446667432785034,-0.05831509828567505,-0.006159923505038023,2.382685852353461e-05,-0.04019492492079735,-0.0026603746227920055,-0.01588847115635872,-0.05341556668281555,-0.062402091920375824,-0.04641541838645935,-0.021448494866490364,-0.0236781295388937,0.01892627216875553,0.0017210086807608604,-0.05889320746064186,0.06595536321401596,0.045511066913604736,-0.06580323725938797,0.004251173231750727,-0.028856433928012848,0.030614659190177917,-0.008390342816710472,0.02867932990193367,0.03682328388094902,-0.061038173735141754,-0.01565059833228588,-0.039638862013816833,0.06331505626440048,0.009759712964296341,0.05985797569155693,-0.020097291097044945,-0.04909133538603783,0.056077659130096436,0.010379799641668797,-0.04037413001060486,-0.03454918786883354,0.04765552282333374,-0.05475906655192375,-0.05223750323057175,-0.005514347925782204,0.048119619488716125,-0.04704628884792328,0.0655541867017746,0.06142415478825569,-0.030879387632012367,0.03547580540180206,0.003464695066213608,-0.017864879220724106,0.04447069764137268,-0.07699305564165115,-0.05662509426474571,-0.04314854368567467,0.01657099835574627,-0.07302292436361313,-0.004818991757929325,-0.03814148157835007,0.051615700125694275,0.010298093780875206,0.058209128677845,-0.03067576326429844,-0.008906770497560501,-0.058271344751119614,0.00857505202293396,-0.06404338032007217,-0.01745544746518135,-0.006801661103963852,-0.02273811772465706,-0.03714440017938614,-0.01620425470173359,-0.028177374973893166,0.04555397108197212,-0.06553612649440765,0.019890420138835907,-0.04706116020679474,-0.051417987793684006,-0.018624911084771156,0.0018668337725102901,-0.037159137427806854,-0.0030154818668961525,0.05344047769904137,0.008976468816399574,0.025635341182351112,-0.054415263235569,-0.027289830148220062,-0.036133505403995514,0.013914712704718113,0.05066859349608421,-0.0004470110288821161,0.014227796345949173,0.047499388456344604,0.002924418542534113,0.017636993899941444,0.03609636053442955,-0.06746455281972885,-0.07057768106460571,-0.06093695014715195,-0.02677338197827339,-0.06635981053113937,-0.054134026169776917,-0.03374340012669563,0.028317198157310486,-0.028804080560803413,-0.031287066638469696,-0.008223406970500946,0.025627272203564644,-0.050640903413295746,0.015531029552221298,-0.02217354066669941,0.00010366681817686185,0.02405446581542492,0.010446603409945965,0.04003913700580597,0.06427724659442902,0.047858402132987976,0.018191518262028694,0.06053297221660614,-0.03606622293591499,0.061990223824977875,0.040395159274339676,0.007806651294231415,-0.023702407255768776,-0.024992890655994415,0.0009858737466856837,0.009022185578942299,-0.06392676383256912,-0.07981409877538681,-0.006616354454308748,0.008029299788177013,0.04906793311238289,0.03426592797040939,-0.05655993893742561,-0.03700021281838417,0.06076279655098915,0.062243249267339706,-0.06558459252119064,-0.04757930710911751,0.018369339406490326,-0.0018374697538092732,-0.0691843181848526,0.0514349639415741,-0.009150768630206585,-0.04747939854860306,-0.041196584701538086,0.030229268595576286,-0.02750001661479473,0.05570954084396362,0.017383942380547523,-0.02323915995657444,0.040525615215301514,0.008337609469890594,0.05302900820970535,-0.04310282692313194,-0.017247747629880905,-0.047011639922857285,-0.017148884013295174,-0.011416052468121052,-0.00047945952974259853,-0.018951712176203728,-0.06127806007862091,0.025228239595890045,0.030467526987195015,-0.07152871042490005,-0.0647837445139885,0.024467365816235542,0.04746004194021225,0.005290143191814423,0.04417978227138519,-0.05305591970682144,0.008733121678233147,-0.05568544194102287,0.007319450844079256,-0.03950103372335434,-0.03357752412557602,0.03390563651919365,0.049241989850997925,0.006997101008892059,-0.0514320470392704,0.0019046625820919871,-0.04372917860746384,-0.03796405345201492,-0.025814900174736977,0.06338459998369217,-0.04678040370345116,-0.048850834369659424,-0.029120907187461853,-0.043153613805770874,-0.05893786996603012,0.01271714735776186,0.04279289394617081,0.043197810649871826,0.029887376353144646,-0.0617864653468132,0.006151771638542414,-0.011739342473447323,-0.017287617549300194,0.025489777326583862,0.025838138535618782,-0.009528915397822857,0.04376429319381714,0.005072347819805145,0.05683492496609688,0.01428070105612278,-0.05165066942572594,0.06529253721237183,0.06578367203474045,0.018867095932364464,0.0320107564330101,-0.0037669502198696136,0.031477008014917374,-0.01849060133099556,0.009187792427837849,0.004911433439701796,-0.07682892680168152,-0.03011832758784294,-0.06891615688800812,-0.03815626725554466,-0.008953477256000042,0.055698174983263016,0.059736739844083786,-0.035304103046655655,-0.025565942749381065,0.04392749071121216,0.03451164811849594,-0.001747687696479261,-0.045359209179878235,-0.005198497790843248,0.03452181816101074,0.012987781316041946,-0.03906901180744171,0.05051189288496971,-0.06875991076231003,-0.0636218711733818,0.019575852900743484,-0.04544374346733093,0.03232724964618683,-0.021774999797344208,-0.05014828220009804,0.037176236510276794,0.054656580090522766,-0.052998799830675125,-0.015299215912818909,-0.06801270693540573,-0.04506698250770569,0.021185019984841347,-0.04689130187034607,-0.03409752622246742,0.0466337725520134,-0.040417835116386414,0.039335958659648895,-0.009363529272377491,-0.004479901399463415,-0.0067501310259103775,0.008968401700258255,-0.05111131817102432,0.01448165625333786,0.043975844979286194,-0.03672958165407181,-0.04839998483657837,0.05046100914478302,-0.02824324555695057,0.03073161095380783,-0.0085343848913908,-0.06213497743010521,-0.06543956696987152,-0.010714245028793812,0.05851959064602852,-0.05533425137400627,-0.062609001994133,-0.03038397803902626,0.05323221907019615,0.030493250116705894,0.0027418199460953474,-0.023383760824799538,-0.03080618754029274,-0.027822548523545265,-0.03677814081311226,-0.0025927608367055655,0.016677845269441605,0.03244534134864807,-0.027118725702166557,0.012172588147222996,0.045653797686100006,-0.015143657103180885,0.062329065054655075,0.00891945417970419,0.03718502074480057,-0.05937444791197777,0.01019632164388895,0.04077870026230812,0.05630083382129669,0.014193485490977764,-0.05574207007884979,-0.03000294230878353,0.015608335845172405,-0.03537139296531677,-0.07534751296043396,-0.02901662327349186,0.06129219010472298,0.04871537908911705,-0.0485224574804306,0.03606037423014641,-0.020622724667191505,-0.06459103524684906,0.031136509031057358,-0.021769197657704353,0.046666961163282394,0.06125674024224281,-0.0035542058758437634,-0.06443886458873749,-0.021689265966415405,0.044955912977457047,-0.0535055436193943,-0.002731665037572384,-0.0622139573097229,0.001035634777508676,-0.04818178340792656,0.03961755335330963,-0.0654498040676117,0.014968689531087875,-0.00935608334839344,-0.04488850384950638,-0.05002870783209801,-0.04896599426865578,0.05826812982559204,-0.05785742774605751,-0.011709236539900303,-0.03552718460559845,-0.0663343295454979,0.001453828881494701,-0.012345974333584309,-0.09297183901071548,-0.012694441713392735,-0.004041654989123344,0.014604991301894188,-0.05342865362763405,0.01928142085671425,-0.0015415966045111418,-0.05017756298184395,0.04467464238405228,0.01863851770758629,0.07031869143247604,0.006207363214343786,0.003286266466602683,-0.04879045858979225,0.05404915288090706,-0.03296597674489021,0.0067452555522322655,-0.049018457531929016,-0.07031621783971786,-0.05889562517404556,0.01976061798632145,-0.07394830137491226,-0.023895608261227608,-0.03730371221899986,0.005801918916404247,0.02836671657860279,0.0023636023979634047,0.020794901996850967,0.0416601188480854,0.01709987409412861,0.02444760501384735,-0.015123381279408932,-0.027336927130818367,-0.031709861010313034,0.016130739822983742,-0.025835586711764336,-0.03997468203306198,-0.07207685708999634,0.04132378101348877,0.01588233932852745,-0.02446906641125679,0.04786993935704231,-0.06354963779449463,-0.054557427763938904,-0.026792924851179123,-0.01903841644525528,0.038819171488285065,-0.034645482897758484,0.0008157156989909708,0.040685221552848816,0.029863683506846428,0.011271358467638493,0.07025168836116791,0.05057112127542496,-0.0603950172662735,0.046775106340646744,-0.01046448852866888,-0.04930204898118973,0.029995737597346306,-0.03479886054992676,-0.02695070207118988,-0.04818180575966835,-0.01990671455860138,0.01700468175113201,-0.04058421030640602,0.030215447768568993,-0.022668911144137383,0.05395222827792168,-0.05910737067461014,-0.005604037083685398,0.023294521495699883,0.05398659035563469,0.017727700993418694,0.03419625759124756,0.04350180923938751,0.04800033196806908,-0.0411042720079422,-0.003890242660418153,0.05151422321796417,0.04944373294711113,-0.0036210380494594574,-0.019001293927431107,0.01014627143740654,0.024828458204865456,-0.016322629526257515,0.008648642338812351,0.00019163292017765343,-0.05331061780452728,0.02563733421266079,0.04817349836230278,-0.004142014309763908,0.026255402714014053,-0.01398463360965252,0.023738449439406395,0.015761598944664,-0.007281120866537094,-0.0661233514547348,0.017047366127371788,0.01312878169119358,0.04310019314289093,0.057925187051296234,0.010217699222266674,-0.048435188829898834,0.04095650836825371,-0.05782535299658775,0.026401452720165253,0.0045574018731713295,0.052264370024204254,0.0350811704993248,0.12228486686944962,0.021108198910951614,0.04216403141617775,-0.05448279529809952,-0.023792093619704247,0.04884261637926102,-0.10257744789123535,0.0043908534571528435,-0.0054569486528635025,0.02152329310774803,0.010656659491360188,0.01794309727847576,-0.009990150108933449,-0.06744775176048279,-0.06260902434587479,0.048179738223552704,-0.028680115938186646,0.11161152273416519,-0.047481514513492584,-0.03756958991289139,-0.010040474124252796,0.008721400983631611,0.02084784209728241,-0.02894257940351963,0.05622925981879234,-0.03169574961066246,0.09046546369791031,-0.003106290940195322,0.0395539328455925,0.1309429258108139,0.12955088913440704,0.12389016896486282,0.015214463695883751,-0.010572200641036034,0.0839724913239479,-0.05270153656601906,-0.07817909121513367,-0.03320622444152832,-0.013838824816048145,-0.0157222431153059,-0.057824160903692245,-0.014337610453367233,0.023397548124194145,0.02116536721587181,-0.06280437111854553,0.003749285591766238,0.14561951160430908,0.025268934667110443,-0.011230719275772572,0.02557893469929695,0.001963364891707897,-0.07826954871416092,0.006619184743613005,0.021240323781967163,0.009640384465456009,-0.009663192555308342,-0.05818914622068405,0.09040341526269913,-0.046761587262153625,-0.14686734974384308,-0.08813310414552689,0.049673717468976974,0.11160088330507278,0.022992031648755074,-0.013626907020807266,-0.09274790436029434,0.013653671368956566,-0.07315076887607574,-0.017104625701904297,-0.03434203565120697,-0.03410666808485985,0.1104266494512558,0.09991278499364853,-0.023388102650642395,-0.07097872346639633,-0.12971359491348267,0.04889092966914177,0.02261173725128174,0.04316866025328636,-0.08154722303152084,-0.10397540777921677,-0.09376853704452515,-0.00843025092035532,-0.010765688493847847,0.034098539501428604,0.055839262902736664,0.08834473043680191,0.07809793204069138,0.0015564479399472475,-0.0761888325214386,-0.013992734253406525,0.0893433466553688,0.06633169203996658,-0.008281879127025604,-0.08621851354837418,-0.07609351724386215,-0.04220268502831459,0.02742649056017399,-0.04003480449318886,-0.03841681033372879,0.06260348856449127,-0.15997011959552765,0.00424928916618228,0.08371130377054214,0.017318187281489372,0.12911802530288696,0.09905881434679031,-0.07714008539915085,-0.08041182160377502,-0.07553306221961975,-0.007415429688990116,-0.02360077202320099,-0.04054734855890274,0.02007388323545456,0.037884585559368134,0.0602666474878788,-0.09484636783599854,0.0181264691054821,0.044363267719745636,0.039493732154369354,0.12259594351053238,0.008827113546431065,-0.05937907099723816,-0.041796162724494934,-0.1290159821510315,-0.0041736732237041,-0.01964491978287697,0.05695626884698868,-0.02514689974486828,0.032760437577962875,0.03980367258191109,-0.01630677469074726,0.07338574528694153,-0.07931523770093918,-0.16552351415157318,-0.055320315062999725,0.005474104546010494,-0.10682225227355957,-0.0785641223192215,-0.2717724144458771,0.00533650815486908,-0.010002030059695244,0.00022291344066616148,-0.027788791805505753,-0.0368158183991909,0.06098970025777817,0.06711363792419434,0.10145392268896103,-0.03587246686220169,-0.20539946854114532,-0.11558230966329575,-0.027883972972631454,0.002041272586211562,-0.07096686959266663,-0.1482069194316864,-0.06631753593683243,-0.055177342146635056,0.06619720906019211,-0.03214187175035477,-0.04176322743296623,-0.0050919852219522,0.012650682590901852,0.057969480752944946,0.029151149094104767,-0.012400966137647629,0.03118646889925003,-0.006257658824324608,0.029993459582328796,-0.10576305538415909,-0.0022065730299800634,-0.02639915607869625,-0.052421070635318756,0.02582923136651516,0.061791811138391495,0.03347451984882355,-0.006850171368569136,-0.06407450139522552,-0.002573116449639201,-0.09277726709842682,0.09244856983423233,0.07742959260940552,0.07325390726327896,0.059192486107349396,-0.06334469467401505,-0.018266623839735985,-0.04344058409333229,0.0015250603901222348,-0.00961331557482481,-0.04566909000277519,0.053264319896698,0.03390495851635933,0.035142939537763596,0.03189510852098465,0.006250923499464989,0.058711085468530655,-0.02079544961452484,-0.039606548845767975,0.01119183748960495,0.007201547734439373,-0.003249144647270441,0.06333693861961365,-0.05209232494235039,-0.05578426644206047,-0.061406854540109634,-0.030132818967103958,-0.029995733872056007,0.007776618469506502,0.06023135408759117,-0.02934073843061924,0.053629320114851,0.05464116111397743,-0.045071445405483246,0.033348698168992996,0.009798829443752766,0.06244159862399101,-0.00356652750633657,0.060918841511011124,0.038823772221803665,0.006789819803088903,0.032333098351955414,-0.013553103432059288,-0.0489080511033535,-0.017907878383994102,0.06534826010465622,0.026718761771917343,0.04506595432758331,0.012940991669893265,0.05725797265768051,0.03361228480935097,0.030733054503798485,0.01565607450902462,0.005191747564822435,0.011588004417717457,0.05227183923125267,-0.059346139430999756,0.008908597752451897,0.031196177005767822,0.015861187130212784,-0.0672483742237091,-0.04045768827199936,0.028335286304354668,-0.03725357726216316,-0.025877609848976135,-0.024185938760638237,-0.0377533994615078,0.052235763520002365,-0.018678542226552963,-0.008947107009589672,0.017020098865032196,0.06060165911912918,-0.031661614775657654,0.004746390040963888,0.015972092747688293,-0.05793401226401329,-0.04527656361460686,0.00025124961393885314,0.02743220143020153,0.0156701747328043,0.017092015594244003,-0.04290664568543434,0.017610007897019386,0.05793396010994911,-0.04848398640751839,0.031830400228500366,-0.01874907873570919,0.04585425183176994,0.04375927150249481,-0.01343574933707714,-0.029469668865203857,-0.061949875205755234,-0.04977264255285263,-0.037022724747657776,-0.06204741448163986,0.03018934838473797,-0.06292818486690521,0.03055240772664547,0.02362567000091076,0.0033321671653538942,-0.051123470067977905,-0.01140666101127863,0.01996641978621483,0.06478788703680038,-0.03993891552090645,0.004047243390232325,0.02350841835141182,-0.01245988067239523,-0.057468805462121964,-0.018417617306113243,-0.06510631740093231,0.017374763265252113,-0.04954356700181961,0.04748772829771042,-0.037621814757585526,-0.005062389653176069,0.04005599394440651,-0.016269883140921593,-0.05292424559593201,0.03767157718539238,-0.0012523600598797202,0.014287196099758148,-0.023039264604449272,-0.022928511723876,0.04052862897515297,-0.014065747149288654,-0.0029931701719760895,-0.07512601464986801,-0.005458700004965067,0.008792591281235218,-0.052588727325201035,-0.040549542754888535,0.0065255723893642426,-0.024058382958173752,-0.013580311089754105,-0.06729432195425034,-0.06844006478786469,0.005805858876556158,-0.05222973972558975,-0.03362671285867691,0.014187519438564777,0.02778802625834942,0.024192310869693756,-0.07098658382892609,0.045903343707323074,-0.0006448745843954384,0.06418528407812119,0.011195525527000427,-0.026955939829349518,0.027035698294639587,0.01128831971436739,0.004780717194080353,0.039912451058626175,-0.053972214460372925,0.019572535529732704,0.007625324185937643,-0.023790357634425163,-0.014181681908667088,0.02264641970396042,0.03509638458490372,-0.002870162483304739,-0.011478989385068417,0.06093021482229233,-0.014184634201228619,0.022767197340726852,-0.012764529325067997,0.011179473251104355,-0.05503333732485771,0.018625663593411446,0.010038109496235847,-0.017687899991869926,-0.04584241285920143,0.053358133882284164,0.03129301220178604,-0.05360911041498184,-0.018797287717461586,-0.008317510597407818,0.03518463298678398,0.018891820684075356,0.007833550684154034,0.009004245512187481,0.01200900785624981,-0.048181407153606415,-0.06810887157917023,0.05156702548265457,-0.058883510529994965,0.022318517789244652,-0.018325641751289368,-0.06255222111940384,0.009011825546622276,0.019950207322835922,0.029923265799880028,0.01276621874421835,0.05434362217783928,0.01807352714240551,-0.06942181289196014,-0.009101025760173798,-0.06781351566314697,0.018083371222019196,-0.05768197402358055,-0.022971313446760178,0.05449892207980156,-0.05333205312490463,-0.012780197896063328,-0.009517288766801357,0.046195294708013535,0.05413839966058731,-0.014197834767401218,0.0014645180199295282,0.014838770031929016,-0.028592972084879875,-0.026745812967419624,0.0017806391697376966,-0.0643542930483818,0.04442642256617546,-0.05048162490129471,-0.008561914786696434,0.024295609444379807,-0.009165470488369465,0.009617219679057598,0.03798247501254082,0.04980913922190666,-0.022459151223301888,-0.059081096202135086,-0.036836475133895874,0.025557806715369225,-0.05529650300741196,-0.05247536674141884,0.05150102078914642,-0.019553320482373238,0.05779198929667473,-0.05019635707139969,-0.06184045970439911,0.00335642509162426,-0.035638079047203064,-0.028402909636497498,0.006546108052134514,0.03537546843290329,-0.04916730150580406,0.033343784511089325,0.023802682757377625,0.04179121181368828,0.06554093211889267,-0.04039731249213219,-0.013112879358232021,0.04993815720081329,0.03589440509676933,-0.027364907786250114,0.01742720603942871,0.045712728053331375,-0.04590428248047829,0.010839900001883507,0.07808384299278259,0.027771349996328354,0.029506320133805275,-0.0102238105610013,-0.048649631440639496,0.04051591828465462,0.04810420051217079,0.018712131306529045,0.06009155511856079,-0.05018727108836174,0.028147786855697632,-0.0028117261826992035,0.03753194212913513,0.009046562947332859,0.016744662076234818,-0.0013041099300608039,0.04308439418673515,0.08645549416542053,-0.013808922842144966,-0.012878918088972569,2.0827616026508622e-05,0.017268333584070206,0.03781762719154358,-0.0791383758187294,0.05647836998105049,0.026627272367477417,0.08385524898767471,0.06025513634085655,-0.005376792047172785,-0.0059811752289533615,0.010465161874890327,0.15880365669727325,-0.03675185143947601,0.02264976128935814,0.007291584741324186,0.043275125324726105,-0.009095854125916958,0.1149551197886467,0.10345067083835602,0.061596520245075226,0.059061530977487564,0.047385845333337784,-0.013346570543944836,-0.008205851539969444,-0.03882759436964989,0.0373527929186821,0.1644289791584015,-0.016804227605462074,0.014410578645765781,0.028631843626499176,0.0436575673520565,0.0075864349491894245,-0.057375989854335785,0.03715142607688904,-0.16645990312099457,0.02490401081740856,0.0002562962763477117,0.02025110460817814,-0.026157794520258904,0.003448454663157463,0.03425620496273041,0.11489804834127426,-0.04951263219118118,0.039530593901872635,-0.15015926957130432,-0.07798273861408234,0.058436889201402664,-0.05031973868608475,-0.037337854504585266,-0.05871494859457016,-0.01835266314446926,0.08168840408325195,-0.01576385647058487,-0.06153464689850807,0.006732424255460501,-0.05330353230237961,0.042877063155174255,-0.043239761143922806,-0.03831366449594498,-0.2647751569747925,-0.0476696714758873,0.025605451315641403,0.052683569490909576,0.0713493600487709,-0.012276914902031422,0.12356095016002655,0.12540896236896515,0.09467903524637222,-0.017736682668328285,-0.06556981056928635,-0.008513879962265491,0.06888866424560547,0.09253301471471786,0.09608877450227737,-0.012956229038536549,-0.02687653712928295,0.16124264895915985,0.14136742055416107,-0.09970173984766006,0.038362424820661545,0.13649974763393402,0.03241396322846413,-0.021244503557682037,0.027623051777482033,0.03556284308433533,0.00097009347518906,0.08930940926074982,0.011194832623004913,0.00656420923769474,-0.07780531793832779,-0.006570474244654179,0.21539758145809174,0.011680018156766891,-0.25479936599731445,0.07004889100790024,0.0977763682603836,0.14108259975910187,0.053810812532901764,-0.049137093126773834,-0.043889112770557404,-0.0517461895942688,-0.26031139492988586,-0.035602983087301254,-0.023877790197730064,0.09202253818511963,0.027367888018488884,0.07390498369932175,-0.013543419539928436,-0.1205960288643837,-0.04987308755517006,0.11958073824644089,0.16902288794517517,-0.014297081157565117,0.054256927222013474,-0.06090236082673073,0.06646136939525604,-0.27544912695884705,-0.08499225229024887,0.007168654352426529,0.091740183532238,0.15410403907299042,0.13758446276187897,-0.11754093319177628,-0.01019565761089325,-0.023170912638306618,0.056985579431056976,0.03403804451227188,0.017077287659049034,-0.030431970953941345,0.04275429621338844,0.02616189420223236,0.07367236167192459,-0.006172894965857267,0.045827846974134445,-0.06746704131364822,-0.04890692979097366,0.21027055382728577,-0.12124348431825638,-0.08328598737716675,0.015501141548156738,0.1283654421567917,0.15531454980373383,-0.040403518825769424,0.013769007287919521,-0.013189793564379215,0.04353056848049164,0.07970691472291946,0.07927825301885605,0.07095571607351303,0.0034797010011970997,-0.043802689760923386,0.15107078850269318,0.013906965032219887,-0.08324292302131653,-0.06323032081127167,0.073293536901474,0.04527418315410614,-0.05610552802681923,0.03612154349684715,0.011087783612310886,0.0630887970328331,0.026764139533042908,0.04896076023578644,-0.012685087509453297,0.006332232616841793,-0.07298176735639572,-0.015189756639301777,0.19129879772663116,0.04403231292963028,0.00873126182705164,0.05173014849424362,0.05721334367990494,0.0456974059343338,0.05100151151418686,-0.05675293132662773,0.05929535627365112,-0.03517450392246246,-0.058899395167827606,0.01691352389752865,0.0024462046567350626,0.05167781561613083,-0.056469809263944626,0.018147414550185204,-0.01832747645676136,0.023498831316828728,-0.005742693319916725,0.009983357042074203,-0.002717828843742609,-0.03014896810054779,-0.05277014151215553,0.012406921945512295,0.049915850162506104,-0.02750915102660656,0.06667598336935043,-0.055036578327417374,0.005705531686544418,0.023225611075758934,0.012776240706443787,0.026189928874373436,0.03778186812996864,0.01322178915143013,-0.049052558839321136,0.038160454481840134,0.010244950652122498,0.044850390404462814,-0.0014140771236270666,-0.04000954329967499,0.005651331041008234,-0.04595392942428589,0.010070634074509144,0.033616479486227036,-0.04149109870195389,0.05101742967963219,-0.02705020271241665,0.01688205450773239,-0.03161949664354324,0.05984962359070778,0.01563979871571064,-0.00015937487478367984,-0.02561025694012642,-0.01974642463028431,0.11548785120248795,0.15761050581932068,0.08040568977594376,0.09555848687887192,0.03773578628897667,0.09902992099523544,0.143917053937912,0.05118619278073311,-0.04856152459979057,0.04490715265274048,0.08494637161493301,0.10088802874088287,0.003630352206528187,0.021898191422224045,-0.054609738290309906,0.07131347060203552,0.06352270394563675,0.1963363140821457,0.15474539995193481,0.11953204870223999,0.13948491215705872,0.13817396759986877,0.10285778343677521,0.05535218119621277,-0.06001981347799301,0.11417517811059952,0.09025000035762787,0.0575115792453289,-0.021614862605929375,-0.04410453140735626,0.09384707361459732,0.0019658124074339867,0.06718216836452484,-0.06896878778934479,-0.0326608307659626,-0.07514704018831253,0.1361166536808014,0.10502441972494125,0.03313082829117775,0.01574227213859558,0.12626662850379944,0.12749099731445312,-0.010049144737422466,0.017793433740735054,-0.06442725658416748,0.06355727463960648,-0.04891464486718178,-0.012387815862894058,0.06942582130432129,0.08163127303123474,0.12149592489004135,0.19138769805431366,-0.0036711320281028748,-0.0800444558262825,0.07648628950119019,0.1259865164756775,0.018160918727517128,-0.014924169518053532,0.0587267205119133,0.01840091682970524,0.04437584802508354,-0.10363000631332397,0.04822979494929314,0.05884629860520363,0.11003842204809189,0.03722099959850311,0.030784424394369125,0.10495712608098984,-0.19330309331417084,-0.034678809344768524,0.058762550354003906,0.0976744219660759,0.02659999579191208,0.0379696860909462,-0.031845834106206894,-0.03569909930229187,-0.16560237109661102,-0.08938078582286835,0.021293627098202705,0.06498068571090698,0.024592822417616844,-0.08484731614589691,0.11526176333427429,-0.04771075025200844,-0.13971786201000214,0.11106213927268982,-0.045582130551338196,-0.0418260358273983,0.049680694937705994,-0.0200165044516325,0.0017511743353679776,-0.11008581519126892,-0.1099005714058876,-0.10274361819028854,0.010692322626709938,-0.07916253805160522,-0.17293453216552734,-0.057827867567539215,0.010822190903127193,-0.012501383200287819,0.041986219584941864,0.00023225943732541054,-0.025968505069613457,-0.015974657610058784,0.019957566633820534,0.016087131574749947,-0.0804300606250763,-0.01139102317392826,-0.06157679855823517,0.013646489940583706,-0.09411697834730148,-0.023146789520978928,0.058701299130916595,0.020202133804559708,0.006963058840483427,0.048403941094875336,0.024085650220513344,0.044585421681404114,0.06044761836528778,-0.023129917681217194,0.06553836911916733,-0.01842428930103779,-0.01412969920784235,0.02383941039443016,0.051609817892313004,-0.020008018240332603,-0.000792149337939918,0.009710383601486683,0.09966892749071121,-0.012103619985282421,-0.0006091732066124678,-0.0026543778367340565,-0.0570356547832489,0.061423398554325104,0.025599194690585136,0.01988530531525612,-0.06792185455560684,0.039269447326660156,0.11272279173135757,0.14803828299045563,-0.009258981794118881,0.059706248342990875,0.047941699624061584,0.0755324438214302,0.05292842164635658,0.060961078852415085,0.03218715265393257,0.06582362204790115,-0.02061307616531849,0.0008929809555411339,0.0510556623339653,0.008854029700160027,0.022609759122133255,-0.022249935194849968,0.05005593225359917,-0.05966733396053314,-0.07767649739980698,0.0523596927523613,0.04269370809197426,0.17683428525924683,0.06755513697862625,-0.02611974999308586,0.01523749902844429,-0.0084556108340621,-0.06553350389003754,0.05805051699280739,0.04537500813603401,0.05008554831147194,-0.07531014829874039,-0.17462065815925598,-0.029019974172115326,-0.09530408680438995,-0.019911278039216995,0.03892078623175621,0.1641363948583603,0.05400272458791733,0.022539379075169563,-0.052352726459503174,0.06636563688516617,-0.05451294779777527,0.09615089744329453,0.10597620904445648,0.07822918146848679,-0.03542521595954895,-0.01909962110221386,-0.048699889332056046,-0.09491235762834549,0.05048508197069168,0.040501564741134644,-0.0411938913166523,0.01839715801179409,-0.019945964217185974,0.060668978840112686,-0.03084460273385048,-0.0124397287145257,0.007655144203454256,0.06490768492221832,0.00673696817830205,0.03664008900523186,-0.019779302179813385,0.05108382925391197,0.06414031237363815,-0.014368485659360886,0.0572347529232502,-0.0027166844811290503,-0.066401407122612,0.022021383047103882,0.02087574079632759,-0.024718189612030983,0.012810258194804192,0.05382567644119263,-0.0346691720187664,-0.06397587060928345,-0.008880178444087505,-0.012168074026703835,0.0362839549779892,-0.03826599195599556,0.010077882558107376,0.06491570174694061,-0.02193731628358364,0.011055104434490204,-0.005869325250387192,0.058584216982126236,-0.051106732338666916,-0.003084182972088456,-0.07416433095932007,-0.2150639146566391,-0.08648809790611267,0.02805900201201439,0.1466326266527176,0.014783745631575584,-0.10146623849868774,-0.19169478118419647,-0.12126010656356812,0.043577633798122406,-0.004800125025212765,0.0031765028834342957,-0.06084770709276199,-0.020485736429691315,0.016639582812786102,-0.08345257490873337,-0.19528856873512268,-0.021769843995571136,0.03154485300183296,-0.06815321743488312,-0.08848025649785995,0.05767640471458435,-0.1145152896642685,-0.08188207447528839,0.04139656573534012,-0.04320702329277992,-0.07917802780866623,0.01876654662191868,-0.0427122600376606,0.021496010944247246,-0.049484774470329285,0.06094205379486084,-0.06127862632274628,-0.04097321256995201,-0.020778950303792953,0.015996549278497696,-0.03309551626443863,0.1086011752486229,0.24964526295661926,0.17691829800605774,0.08902452141046524,-0.01810048706829548,-0.04187221825122833,-0.012052314355969429,0.016382750123739243,-0.11956923454999924,